svm_type c_svc
kernel_type rbf
gamma 0.0625
nr_class 2
total_sv 732
rho 0.869391
label 0 1
nr_sv 473 259
SV
0.006299832389827753 15:0 20:1 32:0 34:0 41:0 50:0 54:0 73:0 77:0 92:0 96:0 97:0 107:0 113:0 124:0 125:0 138:0 140:0 144:0 153:0 156:0 162:0 164:0 170:0 173:0 253:1 262:0 270:0 274:0 276:0 287:0 291:0 292:0 293:0 297:0 299:0 312:0 317:0 318:0 323:0 328:0 338:0 358:0 362:0 379:0 381:0 382:0 405:0 406:1 413:0 455:0 459:0 475:0 476:0 481:0 491:0 500:0 503:0 508:0 522:0 526:0 528:0 534:0 538:0 539:0 540:0 541:0 551:0 552:0 576:0 578:0 586:0 590:0 593:0 600:0 608:0 613:0 621:0 678:0 694:0 696:0 707:0 715:0 717:0 720:0 723:0 726:0 732:0 737:0 740:0 743:0 744:0 747:0 758:0 762:0 764:0 769:0 806:0 810:0 827:0 834:0 854:0 860:2 884:0 887:0 900:0 901:0 916:0 923:1 930:0 933:0 946:0 965:0 971:0 973:0 977:0 981:0 997:0 1000:0 1004:0 1016:0 1031:0 1034:0 1035:0 1041:0 1048:0 1056:0 1064:0 1106:0 1114:0 1148:0 1149:0 1151:0 1156:0 1157:0 1161:0 1163:0 1170:0 1181:0 1184:0 1189:0 1230:0 1248:0 1251:0 1254:0 1257:0 1274:0 1277:0 1278:0 1288:0 1295:0 1297:0 1299:0 1300:1 1324:0 1326:0 1331:0 1350:0 1352:0 1353:0 1366:0 1370:0 1373:0 1379:0 1385:0 1387:0 1409:0 1419:0 1429:0 1431:0 1433:0 1458:0 1464:0 1475:0 1483:0 1487:0 1488:0 1502:0 1511:0 1514:0 1520:0 1526:0 1549:0 1551:0 1552:0 1559:0 1569:0 1570:0 1584:0 1589:0 1598:0 1602:0 1604:0 1614:0 1616:0 1626:0 1627:0 1639:0 1658:0 1679:0 1683:0 1685:0 1686:0 1706:0 1723:1 1724:0 1730:0 1736:0 1773:0 1777:0 1778:0 1779:0 1787:0 1801:0 1811:0 1820:0 1822:0 1845:0 1850:0 1861:0 1863:0 1870:0 1874:0 1877:0 1895:0 1908:0 1912:0 1914:0 1916:0 1925:0 1933:1 1944:0 1946:0 1975:0 2014:0 2035:1 2042:0 2043:0 2063:0 2105:0 2127:0 2129:0 2133:0 2140:0 2150:0 2157:0 2172:0 2180:0 2181:0 2182:0 
0.5437115112356417 15:0 20:0 32:1 34:0 41:0 50:0 54:0 73:0 77:1 92:0 96:0 97:0 107:0 113:0 124:0 125:0 138:0 140:0 144:0 153:0 156:0 162:0 164:0 170:0 173:0 253:0 262:0 270:0 274:0 276:0 287:0 291:0 292:0 293:0 297:0 299:1 312:0 317:0 318:0 323:0 328:0 338:0 358:0 362:0 379:0 381:0 382:0 405:0 406:0 413:0 455:0 459:0 475:0 476:0 481:0 491:0 500:0 503:0 508:0 522:0 526:0 528:0 534:0 538:0 539:1 540:0 541:0 551:0 552:0 576:0 578:0 586:0 590:0 593:0 600:0 608:0 613:0 621:0 678:0 694:0 696:0 707:0 715:0 717:0 720:0 723:0 726:0 732:0 737:0 740:0 743:0 744:0 747:0 758:0 762:0 764:0 769:0 806:0 810:0 827:0 834:0 854:0 860:0 884:0 887:0 900:0 901:0 916:0 923:0 930:0 933:0 946:0 965:0 971:0 973:0 977:0 981:0 997:0 1000:0 1004:0 1016:0 1031:0 1034:0 1035:0 1041:0 1048:0 1056:0 1064:0 1106:0 1114:0 1148:0 1149:0 1151:0 1156:0 1157:0 1161:0 1163:0 1170:1 1181:0 1184:0 1189:0 1230:0 1248:0 1251:0 1254:0 1257:0 1274:0 1277:0 1278:0 1288:0 1295:0 1297:0 1299:0 1300:0 1324:0 1326:0 1331:0 1350:0 1352:0 1353:0 1366:0 1370:0 1373:0 1379:0 1385:0 1387:0 1409:0 1419:0 1429:0 1431:0 1433:0 1458:0 1464:0 1475:0 1483:0 1487:0 1488:0 1502:0 1511:0 1514:0 1520:0 1526:1 1549:0 1551:0 1552:1 1559:0 1569:0 1570:0 1584:0 1589:0 1598:0 1602:0 1604:0 1614:0 1616:0 1626:0 1627:0 1639:0 1658:0 1679:0 1683:0 1685:0 1686:0 1706:0 1723:0 1724:0 1730:0 1736:0 1773:0 1777:0 1778:0 1779:0 1787:0 1801:0 1811:0 1820:0 1822:0 1845:0 1850:0 1861:0 1863:1 1870:0 1874:0 1877:0 1895:0 1908:0 1912:0 1914:0 1916:0 1925:0 1933:0 1944:0 1946:0 1975:0 2014:0 2035:0 2042:0 2043:1 2063:0 2105:0 2127:0 2129:0 2133:0 2140:0 2150:0 2157:0 2172:0 2180:0 2181:0 2182:0 
1.192490693922717 15:0 20:1 32:0 34:0 41:0 50:0 54:0 73:0 77:0 92:0 96:0 97:0 107:0 113:0 124:0 125:0 138:0 140:0 144:0 153:0 156:0 162:0 164:0 170:0 173:0 253:1 262:0 270:0 274:0 276:0 287:0 291:0 292:0 293:0 297:0 299:0 312:0 317:0 318:0 323:0 328:0 338:0 358:0 362:0 379:0 381:0 382:0 405:0 406:0 413:0 455:0 459:0 475:0 476:0 481:0 491:0 500:0 503:0 508:1 522:0 526:0 528:0 534:0 538:0 539:0 540:0 541:0 551:0 552:0 576:0 578:0 586:0 590:0 593:0 600:0 608:0 613:0 621:0 678:0 694:0 696:0 707:0 715:0 717:0 720:0 723:0 726:0 732:0 737:0 740:0 743:0 744:0 747:0 758:0 762:0 764:1 769:0 806:0 810:0 827:0 834:0 854:0 860:0 884:0 887:0 900:0 901:0 916:0 923:0 930:0 933:0 946:0 965:0 971:0 973:0 977:0 981:0 997:0 1000:0 1004:0 1016:0 1031:0 1034:1 1035:0 1041:0 1048:0 1056:0 1064:0 1106:0 1114:0 1148:0 1149:0 1151:0 1156:0 1157:0 1161:0 1163:0 1170:0 1181:0 1184:0 1189:0 1230:0 1248:0 1251:0 1254:0 1257:0 1274:0 1277:0 1278:0 1288:0 1295:0 1297:0 1299:0 1300:0 1324:0 1326:0 1331:0 1350:0 1352:0 1353:0 1366:0 1370:0 1373:0 1379:0 1385:0 1387:0 1409:0 1419:0 1429:0 1431:0 1433:0 1458:0 1464:0 1475:0 1483:0 1487:0 1488:0 1502:0 1511:0 1514:0 1520:2 1526:0 1549:0 1551:0 1552:0 1559:0 1569:0 1570:0 1584:0 1589:0 1598:0 1602:0 1604:0 1614:0 1616:0 1626:0 1627:0 1639:1 1658:0 1679:0 1683:0 1685:0 1686:0 1706:0 1723:0 1724:0 1730:0 1736:0 1773:0 1777:0 1778:0 1779:0 1787:0 1801:0 1811:0 1820:0 1822:0 1845:0 1850:0 1861:0 1863:0 1870:0 1874:0 1877:0 1895:0 1908:0 1912:0 1914:0 1916:0 1925:0 1933:0 1944:0 1946:0 1975:0 2014:0 2035:0 2042:0 2043:0 2063:0 2105:0 2127:0 2129:0 2133:0 2140:0 2150:0 2157:0 2172:0 2180:0 2181:0 2182:0 
1.154616473090193 15:0 20:0 32:0 34:0 41:0 50:0 54:0 73:0 77:1 92:0 96:0 97:0 107:0 113:0 124:0 125:0 138:0 140:0 144:0 153:0 156:0 162:0 164:0 170:0 173:0 253:0 262:1 270:0 274:1 276:0 287:0 291:0 292:0 293:0 297:0 299:0 312:0 317:0 318:0 323:0 328:0 338:0 358:0 362:0 379:0 381:0 382:0 405:0 406:0 413:0 455:0 459:0 475:0 476:0 481:0 491:0 500:0 503:0 508:0 522:0 526:0 528:0 534:0 538:0 539:1 540:0 541:0 551:0 552:0 576:0 578:0 586:0 590:0 593:0 600:0 608:0 613:0 621:0 678:0 694:0 696:0 707:0 715:0 717:0 720:0 723:0 726:0 732:0 737:0 740:0 743:0 744:0 747:0 758:0 762:0 764:0 769:0 806:0 810:0 827:0 834:0 854:0 860:0 884:0 887:0 900:0 901:0 916:0 923:0 930:0 933:0 946:0 965:0 971:0 973:0 977:0 981:0 997:0 1000:0 1004:0 1016:0 1031:0 1034:0 1035:0 1041:0 1048:1 1056:0 1064:0 1106:0 1114:0 1148:0 1149:0 1151:0 1156:1 1157:0 1161:0 1163:0 1170:0 1181:0 1184:0 1189:0 1230:0 1248:0 1251:0 1254:0 1257:0 1274:0 1277:0 1278:0 1288:1 1295:0 1297:0 1299:0 1300:0 1324:0 1326:0 1331:0 1350:0 1352:0 1353:0 1366:0 1370:0 1373:0 1379:0 1385:0 1387:1 1409:0 1419:0 1429:0 1431:0 1433:0 1458:0 1464:0 1475:0 1483:0 1487:0 1488:0 1502:0 1511:0 1514:0 1520:2 1526:0 1549:0 1551:0 1552:0 1559:0 1569:0 1570:0 1584:0 1589:0 1598:1 1602:0 1604:0 1614:0 1616:0 1626:0 1627:0 1639:0 1658:0 1679:0 1683:0 1685:0 1686:0 1706:0 1723:0 1724:0 1730:0 1736:0 1773:0 1777:0 1778:0 1779:0 1787:0 1801:0 1811:0 1820:0 1822:0 1845:0 1850:0 1861:0 1863:0 1870:0 1874:0 1877:0 1895:0 1908:0 1912:0 1914:0 1916:0 1925:0 1933:0 1944:0 1946:0 1975:0 2014:0 2035:0 2042:0 2043:0 2063:0 2105:0 2127:0 2129:0 2133:0 2140:0 2150:0 2157:0 2172:0 2180:0 2181:0 2182:0 
1.587200423618784 15:0 20:1 32:0 34:0 41:0 50:0 54:0 73:0 77:0 92:0 96:0 97:0 107:0 113:0 124:0 125:0 138:0 140:0 144:0 153:0 156:0 162:0 164:0 170:0 173:0 253:0 262:0 270:0 274:0 276:0 287:0 291:0 292:0 293:0 297:0 299:0 312:0 317:0 318:0 323:0 328:0 338:0 358:0 362:0 379:0 381:0 382:0 405:0 406:0 413:0 455:0 459:0 475:0 476:0 481:0 491:0 500:0 503:0 508:0 522:0 526:0 528:0 534:0 538:0 539:0 540:0 541:0 551:0 552:0 576:0 578:0 586:0 590:0 593:0 600:0 608:0 613:0 621:0 678:0 694:0 696:0 707:0 715:0 717:0 720:0 723:0 726:0 732:0 737:0 740:0 743:0 744:0 747:0 758:0 762:0 764:0 769:0 806:0 810:0 827:0 834:0 854:0 860:0 884:0 887:0 900:0 901:1 916:0 923:0 930:0 933:0 946:0 965:0 971:0 973:0 977:0 981:0 997:1 1000:0 1004:0 1016:0 1031:0 1034:0 1035:0 1041:0 1048:0 1056:0 1064:0 1106:0 1114:0 1148:0 1149:0 1151:0 1156:0 1157:0 1161:0 1163:0 1170:0 1181:0 1184:0 1189:0 1230:0 1248:0 1251:0 1254:0 1257:0 1274:0 1277:0 1278:0 1288:0 1295:0 1297:1 1299:0 1300:0 1324:0 1326:0 1331:0 1350:0 1352:0 1353:0 1366:0 1370:0 1373:0 1379:0 1385:0 1387:0 1409:0 1419:0 1429:0 1431:1 1433:0 1458:0 1464:0 1475:0 1483:0 1487:0 1488:0 1502:0 1511:0 1514:0 1520:0 1526:0 1549:0 1551:0 1552:0 1559:0 1569:0 1570:0 1584:0 1589:0 1598:0 1602:0 1604:0 1614:0 1616:0 1626:0 1627:0 1639:0 1658:0 1679:0 1683:0 1685:0 1686:0 1706:0 1723:0 1724:0 1730:0 1736:0 1773:0 1777:0 1778:0 1779:0 1787:0 1801:0 1811:0 1820:0 1822:0 1845:0 1850:0 1861:0 1863:0 1870:0 1874:0 1877:0 1895:0 1908:0 1912:0 1914:0 1916:0 1925:0 1933:0 1944:0 1946:0 1975:0 2014:0 2035:0 2042:0 2043:0 2063:0 2105:0 2127:0 2129:0 2133:0 2140:0 2150:0 2157:0 2172:0 2180:0 2181:0 2182:0 
0.7708040472032157 15:0 20:1 32:0 34:0 41:0 50:0 54:0 73:0 77:0 92:0 96:0 97:0 107:0 113:0 124:0 125:0 138:0 140:0 144:0 153:0 156:0 162:0 164:0 170:0 173:0 253:0 262:0 270:0 274:0 276:0 287:0 291:0 292:0 293:0 297:0 299:0 312:0 317:0 318:0 323:0 328:0 338:0 358:0 362:0 379:0 381:0 382:0 405:0 406:0 413:0 455:0 459:0 475:0 476:0 481:0 491:0 500:1 503:0 508:0 522:0 526:0 528:0 534:0 538:0 539:0 540:0 541:0 551:0 552:0 576:0 578:0 586:0 590:0 593:0 600:0 608:0 613:0 621:0 678:0 694:0 696:0 707:0 715:0 717:0 720:0 723:0 726:0 732:0 737:0 740:0 743:0 744:0 747:0 758:0 762:0 764:0 769:0 806:0 810:0 827:0 834:0 854:0 860:0 884:0 887:0 900:0 901:0 916:0 923:0 930:0 933:0 946:0 965:0 971:0 973:0 977:0 981:1 997:0 1000:0 1004:0 1016:0 1031:0 1034:0 1035:0 1041:0 1048:0 1056:0 1064:0 1106:0 1114:1 1148:0 1149:0 1151:0 1156:0 1157:0 1161:0 1163:0 1170:0 1181:0 1184:0 1189:0 1230:0 1248:0 1251:0 1254:0 1257:0 1274:0 1277:0 1278:0 1288:0 1295:0 1297:0 1299:0 1300:1 1324:0 1326:0 1331:0 1350:0 1352:0 1353:0 1366:0 1370:1 1373:0 1379:0 1385:0 1387:0 1409:0 1419:0 1429:0 1431:0 1433:0 1458:0 1464:1 1475:0 1483:0 1487:0 1488:0 1502:0 1511:0 1514:0 1520:0 1526:1 1549:0 1551:0 1552:0 1559:0 1569:0 1570:0 1584:0 1589:0 1598:0 1602:0 1604:0 1614:0 1616:1 1626:0 1627:0 1639:0 1658:0 1679:0 1683:0 1685:0 1686:0 1706:0 1723:0 1724:0 1730:0 1736:0 1773:0 1777:0 1778:0 1779:0 1787:0 1801:0 1811:0 1820:0 1822:0 1845:0 1850:0 1861:0 1863:0 1870:0 1874:0 1877:0 1895:0 1908:0 1912:0 1914:1 1916:0 1925:0 1933:0 1944:0 1946:0 1975:0 2014:0 2035:0 2042:0 2043:0 2063:0 2105:0 2127:0 2129:0 2133:0 2140:0 2150:0 2157:0 2172:0 2180:0 2181:0 2182:0 
8 15:1 20:0 32:1 34:0 41:0 50:0 54:0 73:0 77:0 92:0 96:0 97:0 107:0 113:0 124:0 125:0 138:0 140:0 144:0 153:0 156:0 162:0 164:0 170:0 173:0 253:0 262:0 270:0 274:0 276:1 287:0 291:0 292:0 293:0 297:0 299:0 312:1 317:0 318:0 323:0 328:0 338:0 358:0 362:1 379:0 381:0 382:0 405:0 406:0 413:0 455:0 459:1 475:0 476:0 481:0 491:0 500:0 503:0 508:0 522:0 526:0 528:0 534:0 538:0 539:0 540:0 541:0 551:0 552:0 576:0 578:0 586:0 590:0 593:0 600:0 608:0 613:0 621:0 678:0 694:0 696:0 707:0 715:1 717:0 720:0 723:0 726:0 732:0 737:0 740:1 743:0 744:0 747:0 758:1 762:0 764:0 769:0 806:0 810:1 827:0 834:0 854:1 860:0 884:0 887:1 900:0 901:0 916:0 923:0 930:0 933:0 946:0 965:0 971:0 973:0 977:0 981:0 997:0 1000:0 1004:0 1016:0 1031:0 1034:0 1035:0 1041:0 1048:0 1056:0 1064:0 1106:0 1114:0 1148:0 1149:0 1151:0 1156:0 1157:0 1161:0 1163:0 1170:1 1181:0 1184:0 1189:0 1230:0 1248:0 1251:0 1254:0 1257:1 1274:0 1277:0 1278:0 1288:0 1295:1 1297:0 1299:0 1300:0 1324:0 1326:0 1331:0 1350:0 1352:0 1353:0 1366:0 1370:1 1373:0 1379:0 1385:0 1387:0 1409:0 1419:0 1429:0 1431:0 1433:0 1458:0 1464:0 1475:0 1483:0 1487:0 1488:0 1502:0 1511:0 1514:0 1520:0 1526:0 1549:0 1551:1 1552:0 1559:0 1569:0 1570:0 1584:0 1589:0 1598:0 1602:0 1604:0 1614:1 1616:1 1626:0 1627:0 1639:0 1658:0 1679:0 1683:0 1685:0 1686:0 1706:0 1723:1 1724:0 1730:0 1736:0 1773:0 1777:0 1778:0 1779:0 1787:0 1801:0 1811:0 1820:0 1822:0 1845:0 1850:1 1861:0 1863:0 1870:0 1874:0 1877:0 1895:0 1908:0 1912:0 1914:0 1916:0 1925:0 1933:0 1944:0 1946:0 1975:0 2014:0 2035:0 2042:1 2043:0 2063:0 2105:0 2127:0 2129:0 2133:0 2140:0 2150:0 2157:0 2172:0 2180:0 2181:0 2182:0 
0.8465923364960625 15:0 20:0 32:1 34:0 41:0 50:0 54:0 73:0 77:0 92:0 96:0 97:0 107:0 113:0 124:0 125:0 138:0 140:0 144:0 153:0 156:0 162:0 164:0 170:0 173:0 253:0 262:0 270:0 274:0 276:0 287:0 291:0 292:0 293:0 297:0 299:1 312:0 317:0 318:0 323:0 328:0 338:0 358:0 362:0 379:0 381:0 382:0 405:0 406:0 413:0 455:0 459:0 475:0 476:0 481:1 491:0 500:0 503:0 508:0 522:0 526:0 528:0 534:0 538:0 539:0 540:0 541:0 551:0 552:0 576:0 578:0 586:0 590:0 593:0 600:0 608:0 613:0 621:0 678:0 694:0 696:0 707:0 715:0 717:0 720:0 723:0 726:1 732:0 737:0 740:0 743:0 744:0 747:0 758:0 762:0 764:0 769:0 806:0 810:0 827:0 834:0 854:0 860:0 884:0 887:0 900:0 901:0 916:0 923:1 930:0 933:0 946:0 965:0 971:0 973:0 977:0 981:0 997:0 1000:0 1004:0 1016:0 1031:0 1034:0 1035:0 1041:0 1048:0 1056:0 1064:0 1106:0 1114:0 1148:0 1149:0 1151:0 1156:0 1157:0 1161:0 1163:0 1170:0 1181:0 1184:0 1189:0 1230:0 1248:0 1251:0 1254:0 1257:0 1274:0 1277:0 1278:0 1288:0 1295:0 1297:1 1299:0 1300:0 1324:0 1326:0 1331:0 1350:0 1352:2 1353:0 1366:0 1370:0 1373:0 1379:0 1385:0 1387:0 1409:0 1419:0 1429:0 1431:0 1433:0 1458:0 1464:0 1475:0 1483:0 1487:0 1488:0 1502:0 1511:0 1514:0 1520:0 1526:0 1549:0 1551:0 1552:1 1559:0 1569:0 1570:0 1584:0 1589:0 1598:0 1602:0 1604:0 1614:0 1616:0 1626:0 1627:0 1639:0 1658:0 1679:0 1683:0 1685:0 1686:0 1706:0 1723:0 1724:0 1730:0 1736:0 1773:0 1777:0 1778:0 1779:0 1787:0 1801:0 1811:0 1820:0 1822:0 1845:0 1850:0 1861:0 1863:0 1870:0 1874:0 1877:0 1895:0 1908:0 1912:0 1914:0 1916:0 1925:1 1933:0 1944:0 1946:0 1975:0 2014:0 2035:0 2042:0 2043:0 2063:0 2105:0 2127:0 2129:0 2133:0 2140:0 2150:0 2157:0 2172:0 2180:0 2181:0 2182:0 
1.260009243222002 15:0 20:0 32:0 34:0 41:0 50:0 54:0 73:0 77:0 92:0 96:0 97:0 107:0 113:0 124:0 125:0 138:0 140:0 144:0 153:0 156:0 162:0 164:0 170:0 173:0 253:0 262:0 270:0 274:0 276:0 287:0 291:0 292:0 293:0 297:0 299:0 312:0 317:0 318:0 323:0 328:0 338:0 358:0 362:0 379:0 381:0 382:0 405:0 406:0 413:0 455:0 459:0 475:0 476:0 481:0 491:0 500:0 503:0 508:0 522:0 526:0 528:0 534:0 538:0 539:1 540:0 541:0 551:0 552:0 576:0 578:0 586:0 590:0 593:0 600:0 608:0 613:0 621:0 678:0 694:0 696:0 707:0 715:0 717:0 720:0 723:0 726:0 732:0 737:0 740:0 743:0 744:0 747:0 758:0 762:0 764:0 769:0 806:0 810:0 827:0 834:0 854:0 860:0 884:0 887:0 900:0 901:0 916:0 923:0 930:0 933:0 946:0 965:0 971:0 973:0 977:0 981:0 997:0 1000:0 1004:0 1016:0 1031:0 1034:0 1035:0 1041:0 1048:0 1056:0 1064:0 1106:0 1114:0 1148:0 1149:0 1151:0 1156:0 1157:0 1161:0 1163:0 1170:0 1181:0 1184:0 1189:0 1230:0 1248:0 1251:0 1254:0 1257:0 1274:0 1277:0 1278:0 1288:0 1295:0 1297:0 1299:0 1300:0 1324:0 1326:1 1331:0 1350:0 1352:0 1353:0 1366:0 1370:0 1373:0 1379:0 1385:0 1387:0 1409:0 1419:0 1429:0 1431:0 1433:0 1458:0 1464:0 1475:0 1483:0 1487:0 1488:0 1502:0 1511:0 1514:0 1520:0 1526:1 1549:0 1551:0 1552:0 1559:1 1569:0 1570:0 1584:0 1589:0 1598:0 1602:1 1604:0 1614:0 1616:0 1626:0 1627:0 1639:0 1658:0 1679:0 1683:0 1685:0 1686:0 1706:0 1723:0 1724:0 1730:0 1736:0 1773:0 1777:0 1778:0 1779:0 1787:0 1801:0 1811:0 1820:0 1822:0 1845:0 1850:0 1861:0 1863:0 1870:0 1874:0 1877:0 1895:0 1908:0 1912:0 1914:0 1916:0 1925:1 1933:0 1944:0 1946:0 1975:0 2014:0 2035:0 2042:0 2043:0 2063:0 2105:0 2127:0 2129:0 2133:0 2140:0 2150:0 2157:0 2172:0 2180:0 2181:0 2182:0 
0.3007948147370712 15:0 20:0 32:0 34:0 41:0 50:0 54:0 73:0 77:0 92:0 96:0 97:0 107:0 113:0 124:0 125:0 138:0 140:0 144:0 153:0 156:0 162:0 164:0 170:0 173:0 253:0 262:0 270:0 274:0 276:0 287:0 291:0 292:0 293:0 297:0 299:1 312:0 317:0 318:0 323:0 328:0 338:0 358:0 362:0 379:0 381:0 382:0 405:0 406:0 413:0 455:1 459:0 475:0 476:0 481:0 491:0 500:0 503:0 508:1 522:0 526:0 528:0 534:0 538:0 539:0 540:0 541:0 551:0 552:0 576:0 578:0 586:0 590:0 593:0 600:0 608:0 613:0 621:0 678:0 694:0 696:0 707:0 715:0 717:0 720:0 723:0 726:0 732:0 737:0 740:0 743:0 744:0 747:0 758:0 762:0 764:0 769:0 806:0 810:0 827:0 834:0 854:0 860:0 884:0 887:0 900:0 901:1 916:0 923:0 930:0 933:0 946:0 965:0 971:0 973:0 977:0 981:0 997:0 1000:0 1004:0 1016:0 1031:0 1034:0 1035:0 1041:0 1048:0 1056:0 1064:0 1106:0 1114:0 1148:0 1149:0 1151:0 1156:0 1157:0 1161:0 1163:0 1170:0 1181:0 1184:0 1189:0 1230:0 1248:0 1251:0 1254:0 1257:0 1274:1 1277:0 1278:0 1288:0 1295:0 1297:0 1299:0 1300:0 1324:0 1326:0 1331:0 1350:0 1352:1 1353:0 1366:0 1370:0 1373:0 1379:0 1385:0 1387:0 1409:0 1419:0 1429:0 1431:0 1433:0 1458:0 1464:0 1475:0 1483:0 1487:0 1488:0 1502:0 1511:0 1514:0 1520:0 1526:0 1549:0 1551:0 1552:1 1559:0 1569:0 1570:0 1584:0 1589:0 1598:0 1602:0 1604:0 1614:0 1616:0 1626:0 1627:0 1639:0 1658:0 1679:0 1683:0 1685:0 1686:0 1706:0 1723:0 1724:0 1730:0 1736:0 1773:0 1777:0 1778:0 1779:0 1787:0 1801:0 1811:0 1820:0 1822:0 1845:0 1850:0 1861:0 1863:0 1870:0 1874:0 1877:0 1895:0 1908:0 1912:0 1914:0 1916:0 1925:1 1933:0 1944:0 1946:0 1975:0 2014:0 2035:0 2042:0 2043:0 2063:0 2105:0 2127:0 2129:0 2133:0 2140:0 2150:0 2157:0 2172:0 2180:0 2181:0 2182:0 
0.4025665487181345 15:0 20:1 32:0 34:0 41:0 50:0 54:0 73:0 77:0 92:0 96:0 97:0 107:0 113:0 124:0 125:0 138:0 140:0 144:0 153:0 156:0 162:0 164:1 170:0 173:0 253:1 262:0 270:0 274:0 276:0 287:0 291:0 292:0 293:0 297:0 299:0 312:0 317:0 318:0 323:0 328:0 338:0 358:0 362:0 379:0 381:0 382:0 405:0 406:1 413:0 455:0 459:0 475:0 476:0 481:0 491:0 500:0 503:0 508:0 522:0 526:0 528:0 534:0 538:1 539:0 540:0 541:0 551:0 552:0 576:0 578:0 586:0 590:0 593:0 600:0 608:0 613:0 621:0 678:0 694:0 696:0 707:0 715:0 717:0 720:0 723:0 726:0 732:0 737:0 740:0 743:0 744:0 747:0 758:0 762:0 764:0 769:0 806:0 810:0 827:0 834:0 854:0 860:0 884:0 887:1 900:0 901:0 916:0 923:0 930:0 933:0 946:0 965:0 971:0 973:0 977:0 981:0 997:0 1000:0 1004:0 1016:1 1031:0 1034:0 1035:0 1041:0 1048:0 1056:0 1064:0 1106:0 1114:0 1148:0 1149:0 1151:0 1156:0 1157:0 1161:0 1163:0 1170:0 1181:0 1184:0 1189:0 1230:0 1248:0 1251:0 1254:0 1257:0 1274:0 1277:0 1278:0 1288:1 1295:0 1297:0 1299:0 1300:0 1324:0 1326:0 1331:0 1350:0 1352:0 1353:0 1366:0 1370:0 1373:0 1379:0 1385:0 1387:1 1409:0 1419:0 1429:0 1431:0 1433:0 1458:0 1464:0 1475:0 1483:0 1487:0 1488:0 1502:0 1511:0 1514:0 1520:0 1526:0 1549:0 1551:0 1552:0 1559:0 1569:0 1570:0 1584:0 1589:0 1598:0 1602:0 1604:0 1614:0 1616:0 1626:0 1627:0 1639:0 1658:0 1679:1 1683:0 1685:0 1686:0 1706:0 1723:0 1724:0 1730:0 1736:0 1773:0 1777:1 1778:0 1779:0 1787:0 1801:0 1811:0 1820:0 1822:0 1845:0 1850:0 1861:1 1863:0 1870:0 1874:0 1877:0 1895:0 1908:0 1912:0 1914:0 1916:0 1925:0 1933:0 1944:0 1946:0 1975:0 2014:0 2035:0 2042:0 2043:0 2063:0 2105:0 2127:0 2129:0 2133:0 2140:0 2150:0 2157:0 2172:0 2180:0 2181:0 2182:0 
1.052506752122331 15:0 20:2 32:0 34:0 41:0 50:0 54:0 73:0 77:0 92:0 96:0 97:0 107:0 113:0 124:0 125:0 138:0 140:0 144:0 153:0 156:0 162:0 164:0 170:0 173:0 253:0 262:0 270:0 274:0 276:0 287:0 291:0 292:0 293:0 297:0 299:0 312:0 317:0 318:0 323:0 328:0 338:0 358:0 362:0 379:0 381:0 382:0 405:0 406:0 413:0 455:0 459:0 475:0 476:0 481:0 491:0 500:0 503:0 508:0 522:0 526:1 528:0 534:0 538:0 539:0 540:0 541:0 551:0 552:0 576:0 578:0 586:0 590:0 593:0 600:0 608:0 613:0 621:0 678:0 694:0 696:0 707:0 715:0 717:0 720:0 723:0 726:0 732:0 737:0 740:0 743:0 744:0 747:0 758:0 762:0 764:0 769:0 806:0 810:0 827:0 834:0 854:0 860:0 884:1 887:0 900:0 901:0 916:0 923:0 930:0 933:0 946:0 965:0 971:0 973:0 977:0 981:0 997:0 1000:0 1004:0 1016:0 1031:0 1034:0 1035:0 1041:0 1048:0 1056:0 1064:0 1106:0 1114:0 1148:0 1149:0 1151:0 1156:0 1157:0 1161:0 1163:0 1170:0 1181:0 1184:0 1189:0 1230:0 1248:0 1251:0 1254:0 1257:0 1274:0 1277:0 1278:0 1288:0 1295:0 1297:0 1299:0 1300:0 1324:2 1326:1 1331:0 1350:0 1352:0 1353:0 1366:0 1370:0 1373:0 1379:0 1385:0 1387:0 1409:0 1419:0 1429:0 1431:0 1433:0 1458:0 1464:0 1475:0 1483:0 1487:0 1488:0 1502:0 1511:0 1514:0 1520:0 1526:0 1549:0 1551:0 1552:0 1559:0 1569:0 1570:0 1584:0 1589:0 1598:0 1602:0 1604:0 1614:0 1616:0 1626:0 1627:0 1639:0 1658:0 1679:0 1683:0 1685:0 1686:0 1706:0 1723:0 1724:0 1730:1 1736:0 1773:0 1777:0 1778:0 1779:0 1787:0 1801:0 1811:0 1820:0 1822:0 1845:0 1850:0 1861:0 1863:0 1870:0 1874:0 1877:0 1895:0 1908:0 1912:0 1914:1 1916:0 1925:0 1933:0 1944:0 1946:0 1975:2 2014:0 2035:0 2042:0 2043:0 2063:0 2105:0 2127:0 2129:0 2133:0 2140:0 2150:0 2157:0 2172:0 2180:0 2181:0 2182:0 
0.7374669068297455 15:0 20:0 32:0 34:0 41:0 50:0 54:0 73:0 77:0 92:0 96:0 97:0 107:0 113:1 124:0 125:0 138:0 140:0 144:0 153:0 156:0 162:0 164:0 170:0 173:0 253:0 262:0 270:0 274:0 276:0 287:0 291:0 292:0 293:0 297:0 299:0 312:0 317:0 318:0 323:0 328:0 338:0 358:0 362:0 379:0 381:0 382:0 405:0 406:0 413:0 455:0 459:0 475:0 476:0 481:0 491:0 500:0 503:0 508:1 522:0 526:0 528:0 534:0 538:0 539:0 540:0 541:0 551:0 552:0 576:0 578:1 586:0 590:0 593:1 600:0 608:0 613:0 621:0 678:0 694:0 696:0 707:0 715:0 717:0 720:0 723:0 726:0 732:0 737:0 740:0 743:0 744:0 747:0 758:0 762:0 764:0 769:0 806:0 810:0 827:0 834:0 854:0 860:0 884:0 887:0 900:1 901:0 916:0 923:0 930:0 933:0 946:0 965:0 971:0 973:0 977:1 981:0 997:0 1000:0 1004:0 1016:0 1031:0 1034:0 1035:0 1041:0 1048:0 1056:0 1064:0 1106:0 1114:0 1148:0 1149:0 1151:0 1156:0 1157:0 1161:0 1163:0 1170:0 1181:0 1184:0 1189:0 1230:0 1248:0 1251:0 1254:0 1257:0 1274:0 1277:0 1278:0 1288:1 1295:0 1297:0 1299:0 1300:0 1324:1 1326:0 1331:0 1350:0 1352:0 1353:0 1366:0 1370:0 1373:0 1379:0 1385:0 1387:0 1409:0 1419:0 1429:0 1431:0 1433:0 1458:0 1464:0 1475:0 1483:0 1487:0 1488:0 1502:0 1511:0 1514:0 1520:0 1526:0 1549:0 1551:0 1552:0 1559:0 1569:0 1570:0 1584:0 1589:0 1598:0 1602:0 1604:0 1614:0 1616:0 1626:0 1627:0 1639:0 1658:0 1679:0 1683:0 1685:0 1686:0 1706:0 1723:0 1724:0 1730:0 1736:0 1773:0 1777:0 1778:0 1779:0 1787:0 1801:0 1811:0 1820:0 1822:0 1845:0 1850:0 1861:0 1863:0 1870:0 1874:0 1877:0 1895:0 1908:0 1912:0 1914:0 1916:0 1925:0 1933:0 1944:0 1946:0 1975:1 2014:0 2035:0 2042:0 2043:0 2063:0 2105:0 2127:0 2129:0 2133:0 2140:0 2150:0 2157:0 2172:0 2180:1 2181:0 2182:0 
0.881558950106696 15:0 20:0 32:0 34:0 41:0 50:0 54:0 73:0 77:0 92:0 96:0 97:0 107:0 113:0 124:0 125:0 138:0 140:0 144:0 153:0 156:0 162:0 164:0 170:0 173:0 253:0 262:0 270:0 274:0 276:0 287:0 291:0 292:0 293:0 297:0 299:0 312:0 317:0 318:0 323:0 328:0 338:0 358:0 362:0 379:0 381:0 382:0 405:0 406:0 413:0 455:0 459:0 475:0 476:0 481:0 491:0 500:0 503:0 508:0 522:0 526:0 528:0 534:0 538:0 539:0 540:0 541:1 551:0 552:0 576:0 578:0 586:0 590:0 593:0 600:0 608:0 613:0 621:0 678:0 694:0 696:0 707:0 715:0 717:0 720:0 723:0 726:0 732:0 737:0 740:0 743:0 744:0 747:0 758:0 762:0 764:0 769:0 806:0 810:0 827:0 834:0 854:0 860:0 884:0 887:0 900:0 901:0 916:0 923:0 930:0 933:0 946:0 965:0 971:0 973:1 977:0 981:0 997:0 1000:0 1004:0 1016:0 1031:0 1034:0 1035:0 1041:0 1048:0 1056:0 1064:0 1106:0 1114:0 1148:0 1149:0 1151:0 1156:0 1157:0 1161:0 1163:0 1170:0 1181:0 1184:0 1189:0 1230:0 1248:0 1251:0 1254:0 1257:0 1274:0 1277:0 1278:0 1288:0 1295:0 1297:2 1299:0 1300:0 1324:0 1326:0 1331:0 1350:0 1352:0 1353:0 1366:0 1370:1 1373:0 1379:0 1385:0 1387:0 1409:0 1419:0 1429:0 1431:1 1433:0 1458:0 1464:0 1475:0 1483:0 1487:0 1488:0 1502:0 1511:0 1514:0 1520:0 1526:1 1549:0 1551:0 1552:0 1559:0 1569:0 1570:0 1584:0 1589:0 1598:0 1602:0 1604:0 1614:0 1616:0 1626:0 1627:0 1639:0 1658:1 1679:0 1683:0 1685:0 1686:0 1706:0 1723:0 1724:0 1730:0 1736:0 1773:0 1777:0 1778:0 1779:0 1787:0 1801:0 1811:0 1820:0 1822:0 1845:0 1850:0 1861:0 1863:0 1870:0 1874:0 1877:0 1895:0 1908:0 1912:0 1914:0 1916:0 1925:1 1933:1 1944:0 1946:0 1975:0 2014:0 2035:0 2042:0 2043:0 2063:0 2105:0 2127:0 2129:0 2133:0 2140:0 2150:0 2157:0 2172:0 2180:0 2181:0 2182:0 
1.800111707238015 15:0 20:0 32:1 34:0 41:0 50:0 54:0 73:0 77:0 92:0 96:0 97:0 107:0 113:0 124:0 125:0 138:0 140:0 144:0 153:0 156:0 162:0 164:0 170:0 173:0 253:0 262:0 270:0 274:0 276:0 287:0 291:0 292:0 293:0 297:0 299:0 312:0 317:0 318:0 323:0 328:0 338:0 358:0 362:0 379:0 381:0 382:0 405:0 406:0 413:0 455:0 459:0 475:0 476:0 481:0 491:0 500:0 503:0 508:0 522:0 526:0 528:0 534:0 538:0 539:0 540:0 541:0 551:0 552:0 576:0 578:0 586:0 590:0 593:0 600:0 608:0 613:0 621:0 678:0 694:0 696:0 707:0 715:0 717:0 720:0 723:0 726:0 732:0 737:0 740:0 743:0 744:0 747:0 758:0 762:0 764:0 769:0 806:0 810:0 827:0 834:0 854:0 860:0 884:1 887:0 900:0 901:0 916:0 923:1 930:0 933:0 946:0 965:0 971:0 973:0 977:0 981:0 997:0 1000:0 1004:0 1016:0 1031:0 1034:0 1035:0 1041:0 1048:0 1056:0 1064:0 1106:0 1114:0 1148:0 1149:0 1151:0 1156:0 1157:0 1161:0 1163:0 1170:0 1181:0 1184:0 1189:0 1230:0 1248:0 1251:0 1254:0 1257:0 1274:0 1277:0 1278:0 1288:0 1295:0 1297:0 1299:0 1300:0 1324:0 1326:0 1331:0 1350:1 1352:0 1353:0 1366:0 1370:0 1373:0 1379:0 1385:0 1387:0 1409:0 1419:0 1429:0 1431:0 1433:0 1458:0 1464:0 1475:0 1483:0 1487:0 1488:0 1502:0 1511:0 1514:0 1520:0 1526:0 1549:0 1551:0 1552:0 1559:0 1569:0 1570:0 1584:0 1589:0 1598:0 1602:0 1604:0 1614:0 1616:0 1626:0 1627:0 1639:0 1658:0 1679:0 1683:0 1685:0 1686:0 1706:0 1723:0 1724:0 1730:0 1736:0 1773:0 1777:0 1778:0 1779:0 1787:1 1801:0 1811:0 1820:0 1822:0 1845:0 1850:0 1861:0 1863:0 1870:0 1874:0 1877:0 1895:0 1908:0 1912:0 1914:0 1916:0 1925:0 1933:0 1944:0 1946:0 1975:1 2014:0 2035:0 2042:0 2043:0 2063:0 2105:0 2127:0 2129:0 2133:0 2140:0 2150:0 2157:0 2172:0 2180:0 2181:0 2182:0 
2.049852326788635 15:0 20:0 32:0 34:1 41:0 50:0 54:0 73:0 77:0 92:0 96:0 97:0 107:0 113:0 124:0 125:0 138:0 140:0 144:0 153:0 156:0 162:0 164:0 170:0 173:0 253:0 262:0 270:0 274:0 276:0 287:1 291:0 292:0 293:0 297:0 299:0 312:0 317:0 318:0 323:0 328:0 338:0 358:0 362:0 379:0 381:0 382:0 405:0 406:0 413:0 455:0 459:0 475:0 476:0 481:0 491:0 500:0 503:0 508:0 522:0 526:0 528:0 534:0 538:0 539:0 540:0 541:0 551:0 552:0 576:0 578:0 586:0 590:0 593:0 600:0 608:0 613:0 621:0 678:0 694:0 696:0 707:0 715:0 717:0 720:0 723:0 726:0 732:0 737:0 740:0 743:0 744:0 747:0 758:0 762:0 764:0 769:0 806:0 810:0 827:0 834:0 854:1 860:0 884:0 887:0 900:0 901:0 916:0 923:0 930:0 933:0 946:0 965:0 971:0 973:0 977:0 981:0 997:0 1000:0 1004:0 1016:0 1031:0 1034:0 1035:0 1041:0 1048:0 1056:0 1064:0 1106:0 1114:0 1148:0 1149:0 1151:0 1156:0 1157:0 1161:0 1163:0 1170:0 1181:0 1184:0 1189:0 1230:0 1248:0 1251:0 1254:0 1257:0 1274:0 1277:0 1278:0 1288:0 1295:1 1297:0 1299:0 1300:0 1324:0 1326:0 1331:0 1350:0 1352:0 1353:0 1366:0 1370:0 1373:0 1379:0 1385:0 1387:0 1409:0 1419:0 1429:0 1431:0 1433:0 1458:0 1464:0 1475:0 1483:0 1487:0 1488:0 1502:0 1511:0 1514:0 1520:0 1526:0 1549:0 1551:0 1552:0 1559:0 1569:0 1570:0 1584:0 1589:0 1598:0 1602:0 1604:0 1614:0 1616:0 1626:0 1627:0 1639:0 1658:0 1679:0 1683:0 1685:0 1686:0 1706:0 1723:0 1724:0 1730:0 1736:0 1773:0 1777:0 1778:0 1779:0 1787:0 1801:0 1811:0 1820:0 1822:0 1845:0 1850:0 1861:0 1863:0 1870:0 1874:0 1877:0 1895:0 1908:0 1912:0 1914:0 1916:0 1925:1 1933:0 1944:0 1946:0 1975:0 2014:0 2035:0 2042:0 2043:0 2063:0 2105:0 2127:0 2129:0 2133:0 2140:0 2150:0 2157:0 2172:0 2180:0 2181:0 2182:0 
1.078271012121778 15:0 20:0 32:0 34:0 41:0 50:0 54:0 73:0 77:0 92:0 96:0 97:0 107:0 113:0 124:0 125:0 138:0 140:0 144:0 153:0 156:0 162:0 164:0 170:0 173:0 253:0 262:0 270:0 274:0 276:0 287:0 291:0 292:0 293:0 297:0 299:0 312:0 317:0 318:0 323:0 328:0 338:0 358:0 362:0 379:0 381:0 382:0 405:0 406:0 413:0 455:0 459:0 475:0 476:0 481:0 491:0 500:0 503:0 508:0 522:0 526:0 528:0 534:0 538:0 539:1 540:0 541:0 551:0 552:0 576:0 578:0 586:0 590:0 593:1 600:0 608:0 613:0 621:0 678:0 694:0 696:0 707:0 715:0 717:0 720:0 723:0 726:0 732:0 737:0 740:0 743:0 744:0 747:0 758:0 762:0 764:0 769:0 806:0 810:0 827:0 834:0 854:0 860:0 884:0 887:0 900:0 901:0 916:0 923:0 930:0 933:0 946:0 965:0 971:0 973:1 977:0 981:0 997:0 1000:0 1004:0 1016:0 1031:0 1034:0 1035:0 1041:0 1048:0 1056:0 1064:0 1106:0 1114:0 1148:0 1149:0 1151:0 1156:0 1157:0 1161:0 1163:0 1170:0 1181:0 1184:0 1189:0 1230:0 1248:0 1251:0 1254:0 1257:0 1274:0 1277:0 1278:0 1288:0 1295:0 1297:0 1299:0 1300:0 1324:0 1326:0 1331:0 1350:0 1352:0 1353:0 1366:0 1370:0 1373:0 1379:0 1385:0 1387:0 1409:0 1419:0 1429:0 1431:0 1433:0 1458:0 1464:0 1475:0 1483:0 1487:0 1488:0 1502:0 1511:0 1514:0 1520:0 1526:0 1549:0 1551:0 1552:0 1559:1 1569:0 1570:0 1584:0 1589:0 1598:0 1602:0 1604:0 1614:0 1616:0 1626:0 1627:0 1639:0 1658:0 1679:0 1683:0 1685:0 1686:0 1706:0 1723:0 1724:0 1730:0 1736:0 1773:0 1777:0 1778:0 1779:0 1787:0 1801:0 1811:0 1820:0 1822:0 1845:0 1850:0 1861:0 1863:0 1870:0 1874:0 1877:0 1895:0 1908:0 1912:0 1914:0 1916:0 1925:1 1933:0 1944:0 1946:0 1975:1 2014:0 2035:0 2042:0 2043:0 2063:0 2105:0 2127:0 2129:0 2133:0 2140:0 2150:0 2157:0 2172:0 2180:0 2181:0 2182:0 
0.1842523013332001 15:0 20:0 32:0 34:0 41:0 50:1 54:0 73:0 77:0 92:0 96:0 97:0 107:0 113:0 124:0 125:0 138:0 140:0 144:0 153:0 156:0 162:0 164:0 170:0 173:0 253:0 262:0 270:0 274:0 276:0 287:0 291:0 292:0 293:0 297:0 299:0 312:0 317:0 318:0 323:0 328:0 338:0 358:0 362:0 379:0 381:0 382:0 405:0 406:0 413:0 455:1 459:0 475:0 476:0 481:0 491:0 500:0 503:0 508:0 522:0 526:0 528:1 534:0 538:0 539:0 540:0 541:0 551:0 552:1 576:0 578:0 586:0 590:0 593:0 600:0 608:0 613:0 621:0 678:0 694:0 696:0 707:0 715:0 717:0 720:1 723:0 726:0 732:0 737:0 740:0 743:0 744:0 747:0 758:0 762:0 764:0 769:0 806:0 810:0 827:0 834:0 854:0 860:0 884:0 887:0 900:0 901:0 916:0 923:0 930:0 933:0 946:0 965:0 971:0 973:0 977:0 981:0 997:0 1000:0 1004:0 1016:0 1031:0 1034:0 1035:0 1041:0 1048:0 1056:0 1064:0 1106:0 1114:0 1148:0 1149:0 1151:0 1156:0 1157:0 1161:0 1163:0 1170:0 1181:0 1184:0 1189:0 1230:0 1248:0 1251:0 1254:0 1257:0 1274:0 1277:0 1278:0 1288:0 1295:1 1297:0 1299:0 1300:0 1324:1 1326:0 1331:0 1350:0 1352:0 1353:0 1366:0 1370:0 1373:0 1379:0 1385:0 1387:0 1409:0 1419:1 1429:0 1431:0 1433:0 1458:0 1464:0 1475:0 1483:0 1487:0 1488:0 1502:0 1511:0 1514:0 1520:0 1526:0 1549:0 1551:0 1552:0 1559:0 1569:0 1570:0 1584:0 1589:0 1598:0 1602:1 1604:0 1614:0 1616:1 1626:0 1627:0 1639:0 1658:0 1679:0 1683:0 1685:0 1686:0 1706:0 1723:0 1724:0 1730:0 1736:0 1773:0 1777:0 1778:0 1779:0 1787:0 1801:0 1811:0 1820:0 1822:0 1845:0 1850:0 1861:0 1863:0 1870:0 1874:0 1877:0 1895:0 1908:0 1912:0 1914:0 1916:0 1925:0 1933:0 1944:0 1946:0 1975:0 2014:0 2035:0 2042:0 2043:0 2063:0 2105:0 2127:0 2129:0 2133:0 2140:0 2150:0 2157:0 2172:0 2180:0 2181:0 2182:0 
1.512589675905341 15:0 20:2 32:0 34:0 41:0 50:1 54:0 73:0 77:0 92:0 96:0 97:0 107:0 113:0 124:0 125:0 138:0 140:0 144:0 153:0 156:0 162:0 164:0 170:0 173:0 253:0 262:0 270:0 274:0 276:0 287:0 291:0 292:0 293:0 297:0 299:0 312:0 317:0 318:0 323:0 328:0 338:0 358:0 362:0 379:0 381:0 382:0 405:0 406:0 413:0 455:0 459:0 475:0 476:0 481:0 491:0 500:0 503:0 508:0 522:0 526:1 528:0 534:0 538:0 539:0 540:0 541:0 551:0 552:0 576:0 578:0 586:0 590:0 593:0 600:0 608:0 613:0 621:0 678:0 694:0 696:0 707:0 715:0 717:0 720:0 723:0 726:0 732:0 737:0 740:0 743:0 744:0 747:0 758:0 762:0 764:0 769:0 806:0 810:0 827:0 834:0 854:0 860:0 884:0 887:0 900:0 901:1 916:0 923:0 930:0 933:0 946:0 965:0 971:0 973:0 977:1 981:0 997:0 1000:0 1004:0 1016:0 1031:0 1034:0 1035:0 1041:0 1048:0 1056:0 1064:0 1106:0 1114:0 1148:0 1149:0 1151:0 1156:0 1157:0 1161:0 1163:0 1170:0 1181:0 1184:0 1189:0 1230:0 1248:0 1251:0 1254:0 1257:0 1274:0 1277:0 1278:0 1288:0 1295:0 1297:0 1299:0 1300:0 1324:2 1326:2 1331:0 1350:0 1352:0 1353:0 1366:1 1370:1 1373:0 1379:0 1385:0 1387:0 1409:0 1419:0 1429:0 1431:0 1433:0 1458:0 1464:0 1475:0 1483:0 1487:0 1488:0 1502:0 1511:0 1514:0 1520:0 1526:0 1549:0 1551:0 1552:0 1559:0 1569:0 1570:0 1584:0 1589:0 1598:0 1602:0 1604:0 1614:0 1616:0 1626:0 1627:0 1639:0 1658:0 1679:0 1683:0 1685:0 1686:0 1706:0 1723:0 1724:0 1730:0 1736:0 1773:0 1777:0 1778:0 1779:0 1787:0 1801:0 1811:0 1820:0 1822:0 1845:0 1850:0 1861:0 1863:0 1870:1 1874:0 1877:0 1895:0 1908:0 1912:0 1914:0 1916:0 1925:0 1933:0 1944:0 1946:0 1975:0 2014:0 2035:0 2042:0 2043:0 2063:0 2105:0 2127:0 2129:0 2133:0 2140:0 2150:0 2157:0 2172:0 2180:0 2181:0 2182:0 
0.8238043143168158 15:0 20:0 32:0 34:0 41:0 50:0 54:0 73:0 77:0 92:0 96:0 97:0 107:0 113:0 124:0 125:0 138:0 140:0 144:0 153:0 156:0 162:0 164:0 170:0 173:0 253:0 262:0 270:0 274:0 276:0 287:0 291:0 292:0 293:0 297:0 299:1 312:0 317:0 318:0 323:0 328:0 338:0 358:0 362:0 379:0 381:0 382:0 405:0 406:0 413:0 455:0 459:0 475:0 476:0 481:0 491:1 500:0 503:0 508:0 522:0 526:0 528:0 534:0 538:0 539:0 540:0 541:0 551:0 552:0 576:0 578:0 586:0 590:0 593:0 600:0 608:0 613:0 621:0 678:0 694:0 696:0 707:0 715:0 717:0 720:0 723:0 726:0 732:0 737:0 740:0 743:0 744:0 747:0 758:0 762:0 764:0 769:0 806:0 810:0 827:0 834:0 854:0 860:0 884:0 887:0 900:0 901:0 916:0 923:0 930:0 933:0 946:0 965:1 971:1 973:0 977:0 981:0 997:0 1000:0 1004:0 1016:0 1031:0 1034:0 1035:1 1041:0 1048:0 1056:0 1064:0 1106:0 1114:0 1148:0 1149:0 1151:0 1156:0 1157:1 1161:0 1163:0 1170:0 1181:0 1184:0 1189:0 1230:0 1248:0 1251:0 1254:0 1257:0 1274:1 1277:0 1278:0 1288:0 1295:0 1297:0 1299:0 1300:0 1324:0 1326:0 1331:0 1350:0 1352:0 1353:0 1366:0 1370:0 1373:0 1379:0 1385:0 1387:0 1409:0 1419:0 1429:0 1431:0 1433:0 1458:0 1464:0 1475:0 1483:0 1487:0 1488:0 1502:0 1511:0 1514:0 1520:0 1526:0 1549:0 1551:0 1552:0 1559:0 1569:0 1570:0 1584:0 1589:0 1598:0 1602:0 1604:0 1614:0 1616:0 1626:0 1627:0 1639:0 1658:0 1679:0 1683:0 1685:0 1686:0 1706:0 1723:0 1724:0 1730:0 1736:0 1773:0 1777:0 1778:0 1779:0 1787:0 1801:0 1811:0 1820:0 1822:0 1845:0 1850:0 1861:0 1863:0 1870:0 1874:0 1877:0 1895:0 1908:0 1912:0 1914:0 1916:0 1925:0 1933:0 1944:0 1946:0 1975:0 2014:0 2035:0 2042:0 2043:0 2063:0 2105:0 2127:0 2129:0 2133:0 2140:0 2150:0 2157:0 2172:0 2180:0 2181:0 2182:0 
0.9892915210827935 15:0 20:0 32:0 34:0 41:0 50:0 54:0 73:0 77:0 92:1 96:0 97:0 107:0 113:0 124:0 125:0 138:0 140:0 144:0 153:0 156:0 162:0 164:1 170:0 173:0 253:0 262:0 270:0 274:0 276:0 287:0 291:0 292:0 293:0 297:0 299:0 312:0 317:0 318:0 323:0 328:0 338:0 358:0 362:0 379:0 381:0 382:0 405:0 406:0 413:0 455:0 459:0 475:0 476:0 481:0 491:0 500:0 503:0 508:0 522:0 526:0 528:0 534:0 538:0 539:0 540:0 541:0 551:0 552:0 576:0 578:0 586:0 590:1 593:0 600:0 608:0 613:0 621:0 678:0 694:0 696:0 707:0 715:0 717:0 720:0 723:0 726:0 732:0 737:0 740:0 743:0 744:0 747:0 758:0 762:0 764:1 769:0 806:0 810:0 827:0 834:0 854:0 860:0 884:0 887:1 900:0 901:0 916:0 923:0 930:0 933:0 946:0 965:0 971:0 973:0 977:0 981:0 997:0 1000:0 1004:0 1016:0 1031:0 1034:0 1035:0 1041:0 1048:0 1056:0 1064:0 1106:0 1114:0 1148:0 1149:0 1151:0 1156:0 1157:1 1161:0 1163:0 1170:0 1181:0 1184:0 1189:0 1230:0 1248:0 1251:0 1254:0 1257:0 1274:0 1277:0 1278:0 1288:0 1295:0 1297:0 1299:0 1300:0 1324:0 1326:0 1331:1 1350:0 1352:0 1353:0 1366:0 1370:0 1373:0 1379:0 1385:0 1387:0 1409:0 1419:0 1429:0 1431:0 1433:0 1458:0 1464:0 1475:0 1483:0 1487:0 1488:0 1502:0 1511:0 1514:0 1520:0 1526:0 1549:0 1551:0 1552:0 1559:0 1569:0 1570:0 1584:0 1589:0 1598:0 1602:0 1604:0 1614:0 1616:0 1626:0 1627:0 1639:0 1658:0 1679:0 1683:0 1685:0 1686:0 1706:0 1723:0 1724:0 1730:0 1736:0 1773:0 1777:0 1778:0 1779:0 1787:0 1801:0 1811:0 1820:0 1822:0 1845:0 1850:1 1861:0 1863:0 1870:0 1874:0 1877:0 1895:0 1908:0 1912:0 1914:0 1916:0 1925:0 1933:0 1944:0 1946:0 1975:0 2014:0 2035:0 2042:0 2043:0 2063:0 2105:0 2127:0 2129:0 2133:0 2140:0 2150:0 2157:0 2172:0 2180:0 2181:0 2182:0 
0.8460815561268367 15:0 20:0 32:0 34:0 41:0 50:0 54:0 73:0 77:0 92:0 96:0 97:0 107:0 113:0 124:0 125:0 138:0 140:0 144:0 153:0 156:0 162:0 164:0 170:0 173:0 253:0 262:0 270:0 274:0 276:0 287:0 291:0 292:0 293:0 297:0 299:0 312:0 317:0 318:1 323:0 328:0 338:0 358:0 362:0 379:0 381:0 382:0 405:0 406:0 413:0 455:0 459:0 475:0 476:0 481:1 491:1 500:0 503:0 508:0 522:0 526:0 528:1 534:0 538:0 539:0 540:0 541:0 551:0 552:0 576:0 578:0 586:0 590:0 593:0 600:0 608:0 613:0 621:0 678:0 694:0 696:0 707:0 715:0 717:0 720:0 723:0 726:0 732:0 737:0 740:0 743:1 744:0 747:0 758:0 762:0 764:0 769:0 806:0 810:0 827:0 834:0 854:0 860:0 884:0 887:0 900:0 901:0 916:0 923:0 930:0 933:0 946:0 965:0 971:1 973:0 977:0 981:0 997:0 1000:0 1004:0 1016:0 1031:0 1034:0 1035:0 1041:0 1048:0 1056:0 1064:0 1106:0 1114:0 1148:0 1149:0 1151:0 1156:0 1157:0 1161:0 1163:0 1170:0 1181:1 1184:0 1189:0 1230:0 1248:0 1251:0 1254:0 1257:0 1274:0 1277:0 1278:0 1288:0 1295:0 1297:0 1299:0 1300:0 1324:0 1326:0 1331:0 1350:0 1352:0 1353:0 1366:0 1370:0 1373:0 1379:0 1385:0 1387:0 1409:0 1419:0 1429:0 1431:0 1433:0 1458:0 1464:0 1475:1 1483:0 1487:0 1488:0 1502:0 1511:0 1514:0 1520:1 1526:0 1549:0 1551:0 1552:0 1559:0 1569:0 1570:0 1584:0 1589:0 1598:0 1602:0 1604:0 1614:0 1616:0 1626:0 1627:0 1639:0 1658:0 1679:0 1683:0 1685:0 1686:0 1706:0 1723:0 1724:0 1730:0 1736:0 1773:0 1777:0 1778:0 1779:0 1787:0 1801:1 1811:0 1820:1 1822:0 1845:0 1850:0 1861:0 1863:0 1870:0 1874:0 1877:0 1895:0 1908:0 1912:0 1914:0 1916:0 1925:0 1933:0 1944:0 1946:0 1975:0 2014:0 2035:0 2042:0 2043:0 2063:0 2105:0 2127:0 2129:0 2133:0 2140:0 2150:0 2157:0 2172:0 2180:0 2181:0 2182:0 
1.220524992423524 15:0 20:1 32:0 34:0 41:1 50:0 54:0 73:0 77:0 92:0 96:0 97:0 107:0 113:0 124:0 125:0 138:0 140:0 144:0 153:0 156:0 162:0 164:0 170:0 173:0 253:0 262:0 270:0 274:0 276:0 287:0 291:0 292:0 293:0 297:0 299:0 312:0 317:0 318:0 323:0 328:0 338:1 358:0 362:0 379:0 381:0 382:0 405:0 406:0 413:0 455:0 459:0 475:0 476:1 481:0 491:0 500:0 503:0 508:0 522:0 526:0 528:0 534:0 538:0 539:0 540:1 541:0 551:0 552:0 576:0 578:0 586:0 590:0 593:0 600:0 608:0 613:0 621:0 678:0 694:0 696:0 707:0 715:0 717:0 720:0 723:0 726:0 732:0 737:1 740:0 743:0 744:0 747:0 758:0 762:0 764:0 769:0 806:0 810:0 827:0 834:0 854:0 860:1 884:0 887:0 900:0 901:0 916:0 923:1 930:0 933:0 946:0 965:0 971:0 973:0 977:0 981:0 997:0 1000:0 1004:0 1016:0 1031:0 1034:0 1035:0 1041:0 1048:0 1056:0 1064:0 1106:0 1114:0 1148:0 1149:0 1151:0 1156:0 1157:0 1161:0 1163:0 1170:0 1181:0 1184:0 1189:0 1230:0 1248:0 1251:0 1254:0 1257:0 1274:0 1277:0 1278:0 1288:0 1295:1 1297:1 1299:0 1300:0 1324:0 1326:0 1331:0 1350:0 1352:0 1353:0 1366:0 1370:0 1373:0 1379:0 1385:0 1387:0 1409:1 1419:0 1429:0 1431:0 1433:0 1458:0 1464:1 1475:0 1483:0 1487:1 1488:0 1502:0 1511:0 1514:0 1520:0 1526:0 1549:0 1551:0 1552:0 1559:0 1569:0 1570:0 1584:0 1589:0 1598:0 1602:0 1604:0 1614:0 1616:1 1626:0 1627:0 1639:0 1658:1 1679:0 1683:0 1685:0 1686:0 1706:0 1723:0 1724:0 1730:0 1736:0 1773:0 1777:0 1778:0 1779:0 1787:0 1801:0 1811:0 1820:0 1822:0 1845:0 1850:0 1861:0 1863:0 1870:0 1874:0 1877:0 1895:0 1908:0 1912:0 1914:0 1916:0 1925:0 1933:0 1944:0 1946:0 1975:0 2014:0 2035:0 2042:0 2043:0 2063:0 2105:0 2127:0 2129:0 2133:0 2140:0 2150:0 2157:0 2172:0 2180:0 2181:0 2182:0 
0.4619788382578588 15:0 20:0 32:0 34:0 41:0 50:0 54:0 73:0 77:0 92:0 96:0 97:0 107:0 113:0 124:0 125:0 138:0 140:0 144:0 153:0 156:0 162:0 164:0 170:0 173:0 253:0 262:0 270:0 274:0 276:0 287:0 291:0 292:0 293:0 297:0 299:1 312:0 317:0 318:0 323:0 328:0 338:0 358:0 362:0 379:0 381:0 382:0 405:0 406:0 413:0 455:0 459:0 475:0 476:0 481:0 491:0 500:0 503:0 508:0 522:0 526:0 528:0 534:0 538:0 539:0 540:0 541:0 551:0 552:0 576:0 578:0 586:0 590:0 593:0 600:0 608:0 613:0 621:0 678:0 694:0 696:0 707:0 715:0 717:0 720:0 723:0 726:0 732:0 737:0 740:0 743:0 744:0 747:0 758:0 762:0 764:0 769:0 806:0 810:0 827:0 834:1 854:0 860:0 884:0 887:0 900:0 901:1 916:0 923:0 930:0 933:0 946:0 965:0 971:0 973:0 977:0 981:0 997:0 1000:0 1004:0 1016:0 1031:0 1034:0 1035:0 1041:0 1048:0 1056:0 1064:0 1106:0 1114:1 1148:0 1149:0 1151:0 1156:0 1157:0 1161:0 1163:0 1170:0 1181:0 1184:0 1189:0 1230:0 1248:0 1251:0 1254:0 1257:0 1274:0 1277:0 1278:0 1288:0 1295:0 1297:1 1299:0 1300:0 1324:0 1326:0 1331:0 1350:0 1352:1 1353:0 1366:0 1370:0 1373:0 1379:0 1385:0 1387:0 1409:0 1419:0 1429:0 1431:0 1433:0 1458:0 1464:0 1475:0 1483:0 1487:0 1488:0 1502:0 1511:0 1514:0 1520:0 1526:0 1549:0 1551:0 1552:1 1559:0 1569:0 1570:0 1584:0 1589:0 1598:0 1602:0 1604:0 1614:0 1616:0 1626:0 1627:0 1639:0 1658:0 1679:0 1683:0 1685:0 1686:0 1706:0 1723:0 1724:0 1730:0 1736:0 1773:0 1777:0 1778:1 1779:0 1787:0 1801:0 1811:0 1820:0 1822:0 1845:0 1850:0 1861:0 1863:0 1870:0 1874:0 1877:0 1895:0 1908:0 1912:0 1914:0 1916:0 1925:0 1933:0 1944:0 1946:0 1975:0 2014:0 2035:0 2042:0 2043:0 2063:0 2105:0 2127:0 2129:0 2133:0 2140:0 2150:0 2157:0 2172:0 2180:0 2181:0 2182:0 
0.4358341181112315 15:0 20:0 32:0 34:0 41:0 50:0 54:0 73:0 77:0 92:0 96:0 97:0 107:0 113:0 124:0 125:0 138:0 140:0 144:0 153:0 156:0 162:0 164:0 170:0 173:0 253:0 262:0 270:0 274:0 276:0 287:0 291:0 292:0 293:1 297:1 299:0 312:0 317:0 318:0 323:0 328:0 338:0 358:0 362:0 379:0 381:0 382:0 405:0 406:0 413:0 455:0 459:0 475:0 476:1 481:0 491:0 500:0 503:0 508:0 522:0 526:0 528:1 534:0 538:0 539:0 540:0 541:0 551:0 552:0 576:0 578:0 586:0 590:0 593:0 600:0 608:0 613:0 621:0 678:0 694:0 696:0 707:0 715:0 717:0 720:0 723:0 726:0 732:0 737:0 740:0 743:0 744:0 747:0 758:0 762:0 764:0 769:0 806:0 810:0 827:0 834:0 854:0 860:0 884:0 887:0 900:0 901:0 916:0 923:1 930:1 933:0 946:0 965:0 971:0 973:0 977:0 981:0 997:0 1000:0 1004:0 1016:0 1031:0 1034:0 1035:0 1041:0 1048:0 1056:0 1064:0 1106:0 1114:0 1148:0 1149:0 1151:0 1156:0 1157:0 1161:0 1163:0 1170:0 1181:0 1184:0 1189:0 1230:0 1248:0 1251:0 1254:0 1257:0 1274:0 1277:0 1278:0 1288:1 1295:0 1297:0 1299:1 1300:0 1324:0 1326:0 1331:0 1350:0 1352:0 1353:0 1366:0 1370:0 1373:0 1379:0 1385:0 1387:0 1409:0 1419:0 1429:0 1431:0 1433:0 1458:0 1464:0 1475:0 1483:0 1487:0 1488:0 1502:0 1511:0 1514:0 1520:0 1526:0 1549:0 1551:0 1552:0 1559:0 1569:0 1570:0 1584:0 1589:0 1598:0 1602:0 1604:0 1614:0 1616:1 1626:0 1627:0 1639:0 1658:0 1679:1 1683:0 1685:0 1686:0 1706:0 1723:0 1724:0 1730:0 1736:1 1773:0 1777:0 1778:0 1779:0 1787:0 1801:0 1811:0 1820:1 1822:0 1845:0 1850:0 1861:0 1863:0 1870:0 1874:0 1877:0 1895:0 1908:0 1912:0 1914:0 1916:0 1925:0 1933:0 1944:0 1946:0 1975:0 2014:0 2035:0 2042:0 2043:0 2063:0 2105:0 2127:0 2129:0 2133:0 2140:0 2150:0 2157:0 2172:0 2180:0 2181:0 2182:0 
1.358304997516552 15:0 20:0 32:1 34:0 41:0 50:0 54:0 73:0 77:0 92:0 96:0 97:0 107:0 113:0 124:0 125:0 138:0 140:0 144:0 153:0 156:0 162:0 164:0 170:0 173:0 253:0 262:0 270:0 274:0 276:0 287:0 291:0 292:0 293:0 297:0 299:0 312:0 317:0 318:0 323:0 328:0 338:0 358:0 362:0 379:0 381:0 382:0 405:0 406:0 413:0 455:0 459:0 475:0 476:0 481:0 491:0 500:0 503:0 508:0 522:0 526:0 528:0 534:0 538:0 539:0 540:0 541:0 551:0 552:0 576:0 578:0 586:0 590:0 593:0 600:0 608:0 613:0 621:0 678:0 694:0 696:0 707:0 715:1 717:0 720:0 723:0 726:0 732:0 737:0 740:0 743:0 744:0 747:0 758:0 762:0 764:0 769:0 806:0 810:0 827:1 834:0 854:0 860:0 884:0 887:0 900:0 901:0 916:0 923:0 930:0 933:0 946:0 965:0 971:0 973:0 977:0 981:0 997:0 1000:0 1004:0 1016:0 1031:0 1034:0 1035:0 1041:0 1048:0 1056:0 1064:0 1106:0 1114:0 1148:0 1149:0 1151:0 1156:0 1157:0 1161:0 1163:0 1170:0 1181:0 1184:0 1189:0 1230:0 1248:0 1251:0 1254:0 1257:0 1274:0 1277:0 1278:0 1288:0 1295:0 1297:0 1299:0 1300:0 1324:0 1326:0 1331:1 1350:0 1352:0 1353:0 1366:0 1370:0 1373:0 1379:0 1385:0 1387:0 1409:0 1419:0 1429:0 1431:0 1433:0 1458:0 1464:0 1475:0 1483:0 1487:0 1488:0 1502:0 1511:0 1514:0 1520:0 1526:0 1549:0 1551:0 1552:0 1559:0 1569:0 1570:0 1584:0 1589:0 1598:0 1602:0 1604:0 1614:0 1616:0 1626:0 1627:0 1639:0 1658:0 1679:0 1683:0 1685:0 1686:0 1706:0 1723:0 1724:0 1730:0 1736:0 1773:0 1777:0 1778:1 1779:0 1787:1 1801:0 1811:0 1820:0 1822:0 1845:0 1850:0 1861:0 1863:0 1870:0 1874:0 1877:0 1895:0 1908:0 1912:0 1914:0 1916:0 1925:0 1933:0 1944:0 1946:0 1975:1 2014:0 2035:0 2042:0 2043:0 2063:0 2105:0 2127:0 2129:0 2133:0 2140:0 2150:0 2157:0 2172:0 2180:0 2181:0 2182:1 
0.6057625132302459 15:0 20:0 32:0 34:1 41:0 50:0 54:0 73:0 77:0 92:0 96:0 97:0 107:0 113:0 124:0 125:0 138:0 140:0 144:0 153:0 156:0 162:0 164:0 170:0 173:0 253:0 262:0 270:0 274:0 276:0 287:0 291:0 292:0 293:0 297:0 299:0 312:0 317:0 318:0 323:0 328:0 338:0 358:0 362:0 379:0 381:0 382:0 405:0 406:0 413:0 455:0 459:0 475:0 476:0 481:0 491:0 500:0 503:0 508:0 522:0 526:0 528:0 534:0 538:0 539:0 540:0 541:0 551:0 552:0 576:0 578:0 586:0 590:0 593:0 600:0 608:0 613:0 621:0 678:0 694:0 696:0 707:0 715:0 717:0 720:0 723:0 726:0 732:0 737:0 740:0 743:0 744:0 747:0 758:0 762:0 764:0 769:0 806:0 810:0 827:0 834:0 854:0 860:0 884:0 887:0 900:0 901:0 916:0 923:0 930:0 933:0 946:0 965:0 971:0 973:0 977:0 981:0 997:0 1000:0 1004:0 1016:0 1031:0 1034:0 1035:0 1041:0 1048:0 1056:0 1064:0 1106:0 1114:0 1148:0 1149:0 1151:0 1156:0 1157:0 1161:0 1163:0 1170:0 1181:0 1184:0 1189:0 1230:0 1248:0 1251:0 1254:0 1257:0 1274:0 1277:0 1278:0 1288:0 1295:0 1297:0 1299:0 1300:0 1324:1 1326:0 1331:0 1350:0 1352:0 1353:0 1366:0 1370:0 1373:0 1379:0 1385:0 1387:0 1409:1 1419:0 1429:0 1431:0 1433:0 1458:0 1464:0 1475:0 1483:0 1487:0 1488:0 1502:0 1511:0 1514:0 1520:0 1526:0 1549:0 1551:0 1552:0 1559:0 1569:0 1570:0 1584:0 1589:0 1598:0 1602:0 1604:0 1614:0 1616:0 1626:0 1627:0 1639:0 1658:0 1679:0 1683:0 1685:0 1686:0 1706:0 1723:0 1724:0 1730:0 1736:0 1773:0 1777:0 1778:0 1779:0 1787:0 1801:0 1811:0 1820:0 1822:0 1845:0 1850:0 1861:1 1863:0 1870:0 1874:0 1877:0 1895:0 1908:0 1912:0 1914:0 1916:0 1925:0 1933:0 1944:0 1946:0 1975:0 2014:0 2035:0 2042:0 2043:0 2063:0 2105:0 2127:0 2129:0 2133:0 2140:0 2150:0 2157:0 2172:0 2180:0 2181:0 2182:0 
2.358854530378381 15:0 20:0 32:0 34:0 41:0 50:0 54:0 73:0 77:0 92:0 96:0 97:0 107:0 113:0 124:0 125:0 138:0 140:0 144:0 153:0 156:0 162:0 164:0 170:0 173:0 253:0 262:0 270:0 274:0 276:0 287:0 291:0 292:0 293:0 297:0 299:0 312:0 317:0 318:0 323:0 328:0 338:0 358:0 362:0 379:0 381:0 382:0 405:0 406:0 413:0 455:0 459:0 475:0 476:0 481:0 491:0 500:0 503:0 508:0 522:0 526:0 528:0 534:0 538:0 539:0 540:0 541:0 551:0 552:0 576:0 578:0 586:0 590:0 593:0 600:0 608:0 613:0 621:0 678:0 694:0 696:0 707:0 715:0 717:0 720:0 723:0 726:0 732:0 737:0 740:0 743:0 744:0 747:0 758:1 762:0 764:0 769:0 806:0 810:0 827:0 834:0 854:0 860:0 884:0 887:0 900:0 901:0 916:0 923:0 930:0 933:0 946:1 965:1 971:0 973:0 977:0 981:0 997:0 1000:0 1004:0 1016:0 1031:0 1034:0 1035:0 1041:0 1048:0 1056:0 1064:0 1106:0 1114:0 1148:0 1149:0 1151:0 1156:0 1157:0 1161:0 1163:0 1170:0 1181:0 1184:0 1189:0 1230:0 1248:0 1251:0 1254:0 1257:0 1274:0 1277:0 1278:0 1288:0 1295:0 1297:1 1299:0 1300:0 1324:0 1326:0 1331:0 1350:0 1352:0 1353:0 1366:0 1370:0 1373:0 1379:0 1385:0 1387:0 1409:0 1419:0 1429:0 1431:0 1433:0 1458:0 1464:0 1475:0 1483:0 1487:0 1488:0 1502:0 1511:0 1514:0 1520:0 1526:0 1549:0 1551:0 1552:0 1559:0 1569:0 1570:0 1584:0 1589:0 1598:0 1602:0 1604:0 1614:0 1616:0 1626:0 1627:0 1639:1 1658:0 1679:0 1683:0 1685:0 1686:0 1706:0 1723:0 1724:0 1730:0 1736:0 1773:0 1777:0 1778:0 1779:0 1787:0 1801:1 1811:0 1820:0 1822:0 1845:0 1850:0 1861:0 1863:1 1870:0 1874:0 1877:0 1895:0 1908:0 1912:0 1914:0 1916:0 1925:0 1933:0 1944:0 1946:0 1975:0 2014:0 2035:0 2042:0 2043:0 2063:0 2105:0 2127:0 2129:0 2133:0 2140:0 2150:0 2157:0 2172:0 2180:0 2181:0 2182:0 
0.1105540858489894 15:0 20:0 32:0 34:0 41:0 50:0 54:0 73:0 77:0 92:0 96:0 97:1 107:0 113:0 124:0 125:0 138:0 140:0 144:0 153:0 156:0 162:0 164:0 170:0 173:0 253:0 262:0 270:0 274:0 276:0 287:0 291:0 292:0 293:0 297:0 299:0 312:0 317:0 318:0 323:0 328:0 338:0 358:0 362:0 379:0 381:0 382:0 405:0 406:0 413:0 455:0 459:0 475:0 476:0 481:0 491:0 500:0 503:0 508:0 522:0 526:0 528:0 534:0 538:1 539:0 540:0 541:0 551:0 552:0 576:0 578:0 586:0 590:0 593:0 600:0 608:0 613:0 621:0 678:0 694:0 696:0 707:0 715:0 717:0 720:0 723:0 726:0 732:0 737:0 740:0 743:0 744:0 747:0 758:0 762:0 764:0 769:0 806:0 810:0 827:0 834:0 854:0 860:1 884:0 887:0 900:0 901:0 916:0 923:0 930:0 933:0 946:0 965:1 971:0 973:0 977:0 981:0 997:0 1000:0 1004:0 1016:0 1031:0 1034:0 1035:0 1041:0 1048:0 1056:0 1064:0 1106:0 1114:0 1148:0 1149:0 1151:0 1156:0 1157:0 1161:0 1163:0 1170:0 1181:0 1184:0 1189:0 1230:0 1248:0 1251:0 1254:0 1257:0 1274:0 1277:0 1278:0 1288:0 1295:0 1297:0 1299:0 1300:0 1324:0 1326:0 1331:0 1350:0 1352:0 1353:0 1366:0 1370:0 1373:0 1379:0 1385:0 1387:0 1409:0 1419:0 1429:0 1431:0 1433:0 1458:0 1464:0 1475:0 1483:0 1487:0 1488:0 1502:0 1511:0 1514:0 1520:0 1526:0 1549:0 1551:0 1552:0 1559:0 1569:0 1570:0 1584:0 1589:0 1598:0 1602:0 1604:0 1614:0 1616:1 1626:0 1627:0 1639:0 1658:1 1679:0 1683:0 1685:0 1686:0 1706:0 1723:0 1724:0 1730:0 1736:0 1773:0 1777:0 1778:0 1779:0 1787:0 1801:0 1811:0 1820:0 1822:0 1845:0 1850:0 1861:0 1863:1 1870:0 1874:0 1877:0 1895:0 1908:0 1912:0 1914:0 1916:0 1925:0 1933:0 1944:0 1946:0 1975:0 2014:0 2035:0 2042:0 2043:0 2063:0 2105:0 2127:0 2129:0 2133:0 2140:0 2150:0 2157:0 2172:0 2180:0 2181:0 2182:0 
3.493982786269887 15:0 20:0 32:0 34:0 41:0 50:0 54:0 73:0 77:0 92:0 96:0 97:0 107:0 113:0 124:0 125:0 138:0 140:0 144:0 153:0 156:0 162:0 164:0 170:0 173:0 253:0 262:0 270:0 274:0 276:0 287:0 291:0 292:0 293:0 297:0 299:0 312:0 317:0 318:0 323:0 328:0 338:0 358:0 362:0 379:0 381:0 382:0 405:0 406:0 413:0 455:0 459:0 475:0 476:0 481:0 491:0 500:0 503:0 508:1 522:0 526:0 528:0 534:0 538:0 539:0 540:0 541:0 551:0 552:0 576:0 578:0 586:0 590:0 593:0 600:0 608:0 613:0 621:0 678:0 694:0 696:0 707:0 715:0 717:0 720:0 723:0 726:0 732:0 737:0 740:0 743:0 744:0 747:0 758:0 762:0 764:0 769:0 806:0 810:0 827:0 834:0 854:0 860:0 884:0 887:0 900:0 901:0 916:0 923:0 930:0 933:0 946:0 965:0 971:0 973:0 977:1 981:0 997:0 1000:0 1004:0 1016:0 1031:0 1034:0 1035:0 1041:0 1048:0 1056:0 1064:0 1106:0 1114:0 1148:0 1149:0 1151:0 1156:0 1157:0 1161:0 1163:0 1170:0 1181:0 1184:0 1189:0 1230:0 1248:0 1251:0 1254:0 1257:0 1274:0 1277:0 1278:0 1288:0 1295:0 1297:0 1299:0 1300:0 1324:0 1326:0 1331:0 1350:0 1352:0 1353:0 1366:1 1370:0 1373:0 1379:0 1385:0 1387:0 1409:0 1419:0 1429:0 1431:0 1433:0 1458:0 1464:0 1475:0 1483:0 1487:0 1488:0 1502:0 1511:0 1514:0 1520:0 1526:0 1549:0 1551:0 1552:0 1559:0 1569:0 1570:0 1584:0 1589:0 1598:0 1602:0 1604:0 1614:0 1616:0 1626:0 1627:0 1639:0 1658:0 1679:0 1683:0 1685:0 1686:0 1706:0 1723:0 1724:0 1730:0 1736:0 1773:0 1777:0 1778:0 1779:0 1787:0 1801:0 1811:0 1820:0 1822:0 1845:0 1850:0 1861:0 1863:0 1870:0 1874:0 1877:0 1895:0 1908:0 1912:0 1914:0 1916:0 1925:0 1933:0 1944:0 1946:0 1975:2 2014:0 2035:0 2042:0 2043:0 2063:0 2105:0 2127:0 2129:0 2133:0 2140:0 2150:0 2157:0 2172:0 2180:0 2181:0 2182:0 
0.3496726291310466 15:0 20:0 32:0 34:0 41:0 50:0 54:0 73:0 77:0 92:0 96:0 97:0 107:0 113:0 124:0 125:0 138:0 140:0 144:0 153:0 156:0 162:0 164:1 170:0 173:0 253:0 262:0 270:0 274:0 276:0 287:0 291:0 292:0 293:0 297:1 299:0 312:0 317:0 318:0 323:1 328:0 338:0 358:0 362:0 379:0 381:0 382:0 405:0 406:0 413:0 455:0 459:0 475:0 476:0 481:0 491:0 500:0 503:0 508:1 522:0 526:0 528:0 534:0 538:0 539:0 540:0 541:1 551:0 552:0 576:0 578:0 586:0 590:0 593:0 600:0 608:0 613:0 621:0 678:0 694:0 696:0 707:0 715:0 717:0 720:0 723:0 726:0 732:0 737:0 740:0 743:1 744:0 747:0 758:0 762:0 764:0 769:0 806:0 810:0 827:0 834:0 854:0 860:0 884:0 887:0 900:0 901:1 916:0 923:0 930:0 933:0 946:0 965:0 971:0 973:0 977:0 981:0 997:0 1000:0 1004:0 1016:0 1031:0 1034:1 1035:0 1041:0 1048:0 1056:0 1064:0 1106:0 1114:0 1148:0 1149:0 1151:0 1156:0 1157:0 1161:0 1163:0 1170:0 1181:0 1184:0 1189:0 1230:0 1248:0 1251:0 1254:0 1257:0 1274:0 1277:0 1278:0 1288:0 1295:0 1297:1 1299:0 1300:0 1324:0 1326:0 1331:0 1350:0 1352:0 1353:0 1366:0 1370:0 1373:0 1379:0 1385:0 1387:1 1409:0 1419:0 1429:0 1431:0 1433:0 1458:0 1464:0 1475:0 1483:0 1487:0 1488:0 1502:0 1511:0 1514:0 1520:0 1526:0 1549:0 1551:0 1552:0 1559:0 1569:0 1570:0 1584:0 1589:0 1598:0 1602:0 1604:0 1614:0 1616:0 1626:0 1627:1 1639:0 1658:0 1679:0 1683:0 1685:0 1686:0 1706:0 1723:0 1724:0 1730:0 1736:0 1773:0 1777:0 1778:0 1779:0 1787:0 1801:0 1811:0 1820:0 1822:0 1845:0 1850:0 1861:0 1863:0 1870:0 1874:0 1877:0 1895:0 1908:0 1912:0 1914:1 1916:0 1925:0 1933:0 1944:0 1946:0 1975:0 2014:0 2035:0 2042:0 2043:0 2063:0 2105:0 2127:0 2129:0 2133:0 2140:0 2150:0 2157:0 2172:0 2180:1 2181:0 2182:0 
0.6027732701943077 15:0 20:0 32:0 34:0 41:0 50:0 54:0 73:0 77:0 92:0 96:0 97:1 107:0 113:0 124:0 125:0 138:0 140:0 144:0 153:0 156:0 162:0 164:0 170:0 173:0 253:0 262:0 270:0 274:0 276:0 287:0 291:0 292:0 293:0 297:0 299:0 312:0 317:0 318:0 323:0 328:0 338:0 358:0 362:0 379:0 381:0 382:0 405:0 406:0 413:0 455:0 459:0 475:0 476:0 481:0 491:0 500:0 503:0 508:0 522:0 526:0 528:0 534:0 538:0 539:0 540:0 541:0 551:0 552:0 576:0 578:0 586:0 590:0 593:0 600:0 608:0 613:0 621:0 678:0 694:0 696:0 707:0 715:0 717:0 720:0 723:0 726:0 732:0 737:0 740:0 743:0 744:0 747:0 758:0 762:0 764:0 769:0 806:0 810:0 827:0 834:0 854:0 860:0 884:0 887:0 900:0 901:0 916:0 923:0 930:0 933:0 946:0 965:0 971:1 973:0 977:0 981:0 997:0 1000:0 1004:0 1016:0 1031:0 1034:0 1035:0 1041:0 1048:0 1056:0 1064:0 1106:0 1114:0 1148:0 1149:0 1151:0 1156:0 1157:0 1161:0 1163:0 1170:0 1181:0 1184:0 1189:0 1230:0 1248:0 1251:0 1254:0 1257:0 1274:0 1277:0 1278:0 1288:0 1295:0 1297:0 1299:0 1300:0 1324:0 1326:0 1331:0 1350:0 1352:0 1353:0 1366:0 1370:0 1373:0 1379:0 1385:0 1387:0 1409:1 1419:0 1429:0 1431:0 1433:0 1458:0 1464:0 1475:0 1483:0 1487:0 1488:0 1502:0 1511:0 1514:0 1520:0 1526:0 1549:0 1551:0 1552:0 1559:0 1569:0 1570:0 1584:0 1589:0 1598:0 1602:0 1604:0 1614:0 1616:1 1626:0 1627:0 1639:0 1658:0 1679:0 1683:0 1685:0 1686:0 1706:0 1723:0 1724:0 1730:0 1736:0 1773:0 1777:0 1778:0 1779:0 1787:0 1801:0 1811:0 1820:0 1822:0 1845:0 1850:0 1861:0 1863:0 1870:0 1874:0 1877:0 1895:0 1908:0 1912:0 1914:0 1916:0 1925:0 1933:0 1944:0 1946:0 1975:0 2014:0 2035:0 2042:1 2043:0 2063:0 2105:0 2127:0 2129:0 2133:0 2140:0 2150:0 2157:0 2172:0 2180:0 2181:0 2182:0 
0.3518641894713857 15:0 20:0 32:1 34:0 41:0 50:0 54:0 73:0 77:0 92:0 96:0 97:0 107:0 113:0 124:0 125:0 138:0 140:0 144:0 153:0 156:0 162:0 164:0 170:0 173:0 253:0 262:0 270:0 274:1 276:0 287:0 291:0 292:0 293:0 297:0 299:0 312:0 317:0 318:0 323:0 328:0 338:0 358:0 362:0 379:0 381:0 382:0 405:0 406:0 413:0 455:0 459:0 475:0 476:0 481:0 491:0 500:0 503:0 508:0 522:0 526:0 528:0 534:0 538:0 539:0 540:0 541:0 551:0 552:0 576:0 578:0 586:0 590:0 593:0 600:0 608:0 613:0 621:0 678:0 694:0 696:0 707:0 715:0 717:0 720:0 723:0 726:0 732:0 737:0 740:0 743:1 744:0 747:0 758:0 762:0 764:0 769:0 806:0 810:0 827:0 834:0 854:0 860:0 884:0 887:0 900:0 901:0 916:0 923:0 930:0 933:0 946:0 965:1 971:0 973:0 977:0 981:0 997:0 1000:0 1004:0 1016:0 1031:0 1034:0 1035:0 1041:0 1048:0 1056:0 1064:0 1106:0 1114:0 1148:0 1149:0 1151:0 1156:1 1157:0 1161:0 1163:0 1170:0 1181:0 1184:0 1189:0 1230:0 1248:0 1251:0 1254:0 1257:0 1274:0 1277:0 1278:0 1288:0 1295:0 1297:0 1299:1 1300:0 1324:0 1326:0 1331:0 1350:0 1352:0 1353:0 1366:0 1370:0 1373:0 1379:0 1385:0 1387:1 1409:0 1419:0 1429:0 1431:0 1433:0 1458:0 1464:0 1475:0 1483:0 1487:0 1488:0 1502:0 1511:0 1514:0 1520:0 1526:0 1549:0 1551:0 1552:0 1559:0 1569:0 1570:0 1584:0 1589:0 1598:0 1602:0 1604:0 1614:0 1616:0 1626:0 1627:0 1639:0 1658:0 1679:0 1683:0 1685:0 1686:0 1706:0 1723:0 1724:0 1730:0 1736:0 1773:0 1777:0 1778:0 1779:0 1787:0 1801:0 1811:0 1820:0 1822:0 1845:0 1850:1 1861:0 1863:0 1870:0 1874:0 1877:0 1895:0 1908:0 1912:0 1914:0 1916:0 1925:0 1933:1 1944:0 1946:0 1975:0 2014:0 2035:0 2042:1 2043:0 2063:0 2105:0 2127:0 2129:0 2133:0 2140:0 2150:0 2157:0 2172:0 2180:0 2181:0 2182:0 
0.9032499125707338 15:0 20:0 32:0 34:0 41:0 50:0 54:0 73:0 77:0 92:0 96:0 97:0 107:0 113:0 124:0 125:0 138:0 140:1 144:0 153:0 156:0 162:0 164:0 170:0 173:0 253:0 262:0 270:0 274:0 276:0 287:0 291:0 292:0 293:0 297:0 299:0 312:0 317:0 318:0 323:0 328:0 338:0 358:0 362:0 379:0 381:0 382:0 405:0 406:0 413:0 455:0 459:0 475:0 476:0 481:0 491:0 500:0 503:0 508:0 522:0 526:0 528:0 534:0 538:1 539:0 540:0 541:0 551:0 552:0 576:0 578:0 586:0 590:0 593:0 600:0 608:0 613:0 621:0 678:0 694:0 696:0 707:0 715:0 717:0 720:0 723:0 726:0 732:0 737:0 740:0 743:0 744:0 747:0 758:0 762:0 764:0 769:0 806:0 810:0 827:0 834:0 854:0 860:0 884:0 887:0 900:0 901:0 916:0 923:0 930:0 933:0 946:0 965:0 971:0 973:0 977:0 981:0 997:0 1000:0 1004:0 1016:0 1031:0 1034:0 1035:0 1041:0 1048:0 1056:0 1064:0 1106:0 1114:0 1148:0 1149:0 1151:0 1156:0 1157:1 1161:0 1163:0 1170:0 1181:0 1184:0 1189:0 1230:0 1248:0 1251:0 1254:0 1257:0 1274:0 1277:0 1278:0 1288:0 1295:0 1297:1 1299:0 1300:0 1324:0 1326:0 1331:0 1350:0 1352:0 1353:0 1366:0 1370:0 1373:0 1379:0 1385:0 1387:1 1409:0 1419:0 1429:0 1431:0 1433:0 1458:0 1464:0 1475:0 1483:0 1487:0 1488:0 1502:0 1511:0 1514:0 1520:0 1526:0 1549:0 1551:0 1552:0 1559:0 1569:0 1570:0 1584:0 1589:1 1598:0 1602:0 1604:0 1614:0 1616:1 1626:0 1627:0 1639:0 1658:0 1679:0 1683:0 1685:0 1686:0 1706:0 1723:0 1724:0 1730:0 1736:0 1773:0 1777:0 1778:0 1779:0 1787:0 1801:0 1811:0 1820:0 1822:0 1845:0 1850:0 1861:0 1863:0 1870:0 1874:0 1877:0 1895:0 1908:0 1912:0 1914:0 1916:0 1925:1 1933:0 1944:0 1946:0 1975:0 2014:0 2035:0 2042:0 2043:0 2063:0 2105:0 2127:0 2129:0 2133:0 2140:0 2150:0 2157:0 2172:0 2180:0 2181:0 2182:0 
0.679751203873445 15:0 20:1 32:0 34:0 41:0 50:0 54:0 73:0 77:0 92:0 96:1 97:0 107:0 113:0 124:0 125:0 138:0 140:0 144:0 153:0 156:0 162:0 164:0 170:0 173:0 253:0 262:0 270:0 274:0 276:0 287:0 291:0 292:0 293:0 297:0 299:0 312:0 317:0 318:0 323:0 328:0 338:0 358:0 362:0 379:0 381:0 382:0 405:1 406:0 413:0 455:0 459:0 475:0 476:0 481:0 491:0 500:0 503:0 508:0 522:0 526:0 528:0 534:0 538:1 539:0 540:0 541:0 551:0 552:0 576:0 578:0 586:0 590:0 593:0 600:0 608:0 613:0 621:0 678:0 694:0 696:0 707:0 715:0 717:0 720:0 723:0 726:0 732:0 737:0 740:1 743:0 744:0 747:0 758:0 762:0 764:0 769:0 806:0 810:0 827:0 834:0 854:0 860:0 884:0 887:0 900:0 901:0 916:0 923:0 930:0 933:0 946:0 965:0 971:0 973:0 977:1 981:0 997:0 1000:0 1004:0 1016:0 1031:0 1034:0 1035:0 1041:0 1048:0 1056:0 1064:0 1106:0 1114:0 1148:0 1149:0 1151:0 1156:0 1157:0 1161:0 1163:0 1170:0 1181:0 1184:0 1189:0 1230:0 1248:0 1251:0 1254:0 1257:0 1274:0 1277:0 1278:0 1288:0 1295:0 1297:1 1299:0 1300:0 1324:0 1326:0 1331:0 1350:0 1352:0 1353:0 1366:0 1370:0 1373:0 1379:0 1385:0 1387:0 1409:0 1419:0 1429:0 1431:0 1433:0 1458:0 1464:0 1475:0 1483:0 1487:0 1488:0 1502:0 1511:0 1514:0 1520:0 1526:0 1549:0 1551:0 1552:0 1559:0 1569:0 1570:0 1584:0 1589:0 1598:0 1602:0 1604:0 1614:0 1616:0 1626:0 1627:0 1639:0 1658:0 1679:0 1683:0 1685:0 1686:0 1706:0 1723:0 1724:0 1730:0 1736:0 1773:0 1777:0 1778:0 1779:0 1787:0 1801:0 1811:0 1820:0 1822:0 1845:0 1850:0 1861:0 1863:0 1870:0 1874:0 1877:0 1895:0 1908:0 1912:0 1914:0 1916:0 1925:0 1933:0 1944:1 1946:0 1975:0 2014:0 2035:0 2042:0 2043:0 2063:0 2105:0 2127:0 2129:0 2133:0 2140:0 2150:0 2157:0 2172:0 2180:0 2181:0 2182:1 
0.3916249942095982 15:0 20:0 32:0 34:0 41:0 50:0 54:0 73:0 77:0 92:0 96:0 97:0 107:0 113:0 124:0 125:0 138:0 140:0 144:0 153:0 156:0 162:0 164:0 170:0 173:0 253:0 262:0 270:0 274:0 276:0 287:0 291:0 292:0 293:0 297:0 299:0 312:0 317:0 318:0 323:0 328:0 338:0 358:0 362:0 379:0 381:0 382:0 405:0 406:0 413:0 455:0 459:0 475:0 476:0 481:0 491:0 500:0 503:0 508:0 522:0 526:1 528:0 534:0 538:0 539:0 540:0 541:0 551:0 552:0 576:0 578:0 586:0 590:0 593:0 600:0 608:0 613:0 621:0 678:0 694:0 696:0 707:0 715:0 717:0 720:0 723:0 726:0 732:0 737:0 740:0 743:0 744:0 747:0 758:0 762:0 764:0 769:0 806:0 810:0 827:0 834:0 854:0 860:0 884:0 887:0 900:0 901:0 916:0 923:0 930:0 933:0 946:0 965:0 971:0 973:0 977:0 981:0 997:0 1000:0 1004:0 1016:0 1031:0 1034:0 1035:0 1041:0 1048:0 1056:0 1064:0 1106:0 1114:0 1148:0 1149:0 1151:0 1156:0 1157:0 1161:0 1163:0 1170:0 1181:0 1184:0 1189:0 1230:0 1248:0 1251:0 1254:0 1257:0 1274:0 1277:0 1278:0 1288:0 1295:1 1297:0 1299:0 1300:0 1324:0 1326:0 1331:0 1350:0 1352:0 1353:0 1366:1 1370:1 1373:0 1379:0 1385:0 1387:0 1409:0 1419:0 1429:0 1431:0 1433:0 1458:0 1464:0 1475:0 1483:0 1487:0 1488:0 1502:0 1511:0 1514:0 1520:0 1526:0 1549:0 1551:0 1552:0 1559:0 1569:0 1570:0 1584:0 1589:0 1598:0 1602:0 1604:0 1614:0 1616:0 1626:0 1627:0 1639:0 1658:0 1679:0 1683:0 1685:0 1686:0 1706:0 1723:0 1724:0 1730:0 1736:1 1773:0 1777:0 1778:0 1779:0 1787:0 1801:0 1811:0 1820:0 1822:0 1845:0 1850:0 1861:0 1863:0 1870:0 1874:0 1877:0 1895:0 1908:0 1912:0 1914:0 1916:0 1925:0 1933:0 1944:0 1946:0 1975:1 2014:0 2035:0 2042:0 2043:0 2063:0 2105:0 2127:0 2129:0 2133:0 2140:0 2150:0 2157:0 2172:0 2180:0 2181:0 2182:0 
0.7614522915509797 15:0 20:0 32:2 34:0 41:0 50:0 54:0 73:0 77:0 92:0 96:0 97:0 107:0 113:0 124:0 125:0 138:0 140:0 144:0 153:0 156:0 162:0 164:1 170:0 173:0 253:0 262:0 270:0 274:0 276:0 287:0 291:0 292:0 293:1 297:0 299:0 312:0 317:0 318:0 323:0 328:0 338:0 358:0 362:0 379:0 381:0 382:0 405:0 406:0 413:0 455:1 459:0 475:0 476:0 481:0 491:0 500:0 503:0 508:0 522:0 526:0 528:0 534:0 538:0 539:0 540:0 541:0 551:0 552:0 576:0 578:0 586:0 590:0 593:0 600:0 608:0 613:0 621:0 678:0 694:0 696:0 707:0 715:0 717:0 720:0 723:0 726:0 732:0 737:0 740:0 743:0 744:0 747:0 758:0 762:0 764:0 769:0 806:0 810:0 827:0 834:0 854:0 860:0 884:0 887:0 900:0 901:0 916:0 923:0 930:0 933:0 946:1 965:0 971:0 973:0 977:0 981:0 997:0 1000:0 1004:0 1016:0 1031:0 1034:0 1035:0 1041:0 1048:0 1056:0 1064:0 1106:0 1114:0 1148:0 1149:0 1151:0 1156:0 1157:1 1161:0 1163:0 1170:0 1181:1 1184:0 1189:0 1230:0 1248:0 1251:0 1254:0 1257:0 1274:0 1277:0 1278:0 1288:0 1295:0 1297:0 1299:0 1300:0 1324:0 1326:0 1331:0 1350:0 1352:0 1353:0 1366:0 1370:0 1373:0 1379:0 1385:0 1387:0 1409:0 1419:0 1429:0 1431:0 1433:0 1458:0 1464:0 1475:0 1483:0 1487:0 1488:0 1502:0 1511:0 1514:0 1520:1 1526:0 1549:0 1551:0 1552:0 1559:0 1569:0 1570:0 1584:0 1589:0 1598:0 1602:0 1604:0 1614:0 1616:1 1626:0 1627:0 1639:0 1658:0 1679:1 1683:0 1685:0 1686:0 1706:0 1723:0 1724:0 1730:0 1736:0 1773:0 1777:0 1778:0 1779:0 1787:0 1801:0 1811:0 1820:0 1822:0 1845:0 1850:0 1861:0 1863:0 1870:0 1874:0 1877:0 1895:0 1908:0 1912:0 1914:0 1916:0 1925:0 1933:0 1944:0 1946:0 1975:1 2014:0 2035:0 2042:0 2043:0 2063:0 2105:0 2127:0 2129:0 2133:0 2140:0 2150:0 2157:0 2172:0 2180:0 2181:0 2182:0 
0.960337424338382 15:0 20:0 32:0 34:0 41:0 50:0 54:0 73:0 77:0 92:0 96:0 97:0 107:0 113:0 124:0 125:0 138:0 140:0 144:0 153:0 156:0 162:0 164:0 170:0 173:0 253:0 262:0 270:0 274:0 276:0 287:0 291:0 292:0 293:0 297:0 299:0 312:0 317:0 318:0 323:0 328:0 338:0 358:0 362:0 379:0 381:0 382:0 405:0 406:0 413:0 455:0 459:0 475:0 476:0 481:0 491:0 500:0 503:0 508:0 522:0 526:0 528:0 534:0 538:0 539:0 540:0 541:0 551:0 552:0 576:0 578:0 586:0 590:0 593:0 600:0 608:0 613:0 621:0 678:0 694:0 696:0 707:0 715:0 717:0 720:0 723:0 726:0 732:0 737:0 740:0 743:0 744:0 747:0 758:0 762:0 764:0 769:0 806:0 810:0 827:0 834:0 854:0 860:0 884:0 887:0 900:0 901:0 916:0 923:0 930:0 933:0 946:0 965:0 971:0 973:0 977:0 981:0 997:0 1000:0 1004:0 1016:0 1031:0 1034:0 1035:0 1041:0 1048:0 1056:0 1064:0 1106:0 1114:0 1148:0 1149:0 1151:0 1156:0 1157:0 1161:0 1163:0 1170:0 1181:0 1184:0 1189:0 1230:0 1248:0 1251:0 1254:0 1257:0 1274:0 1277:0 1278:0 1288:0 1295:0 1297:0 1299:0 1300:0 1324:0 1326:0 1331:0 1350:1 1352:0 1353:0 1366:0 1370:0 1373:0 1379:0 1385:0 1387:0 1409:1 1419:0 1429:0 1431:0 1433:0 1458:0 1464:0 1475:0 1483:0 1487:0 1488:0 1502:0 1511:0 1514:0 1520:0 1526:1 1549:0 1551:0 1552:0 1559:0 1569:0 1570:0 1584:0 1589:0 1598:0 1602:0 1604:0 1614:0 1616:0 1626:0 1627:0 1639:0 1658:0 1679:0 1683:0 1685:0 1686:0 1706:0 1723:0 1724:0 1730:0 1736:0 1773:0 1777:0 1778:0 1779:0 1787:0 1801:0 1811:0 1820:0 1822:0 1845:0 1850:0 1861:0 1863:0 1870:0 1874:0 1877:0 1895:0 1908:0 1912:0 1914:0 1916:0 1925:0 1933:0 1944:0 1946:0 1975:0 2014:0 2035:0 2042:0 2043:0 2063:0 2105:0 2127:0 2129:0 2133:0 2140:0 2150:0 2157:0 2172:0 2180:1 2181:0 2182:0 
2.371378850364302 15:1 20:0 32:0 34:0 41:0 50:0 54:0 73:0 77:0 92:0 96:0 97:0 107:0 113:0 124:0 125:0 138:0 140:0 144:0 153:0 156:0 162:0 164:0 170:0 173:0 253:1 262:0 270:0 274:0 276:0 287:0 291:0 292:0 293:0 297:0 299:0 312:0 317:0 318:0 323:0 328:0 338:0 358:0 362:0 379:0 381:0 382:0 405:0 406:0 413:0 455:0 459:0 475:0 476:0 481:0 491:0 500:0 503:0 508:0 522:0 526:0 528:0 534:0 538:0 539:0 540:0 541:0 551:0 552:0 576:0 578:0 586:0 590:0 593:0 600:0 608:0 613:0 621:0 678:0 694:0 696:0 707:0 715:0 717:0 720:0 723:0 726:0 732:0 737:0 740:1 743:0 744:0 747:0 758:0 762:0 764:0 769:0 806:0 810:0 827:0 834:0 854:0 860:0 884:0 887:1 900:0 901:0 916:0 923:0 930:0 933:0 946:0 965:0 971:0 973:0 977:0 981:0 997:0 1000:0 1004:0 1016:0 1031:0 1034:0 1035:0 1041:0 1048:0 1056:0 1064:0 1106:0 1114:0 1148:0 1149:0 1151:0 1156:0 1157:0 1161:0 1163:0 1170:0 1181:0 1184:0 1189:0 1230:0 1248:0 1251:0 1254:0 1257:0 1274:0 1277:0 1278:0 1288:0 1295:0 1297:0 1299:0 1300:0 1324:1 1326:0 1331:0 1350:0 1352:0 1353:0 1366:0 1370:0 1373:0 1379:0 1385:0 1387:0 1409:0 1419:0 1429:0 1431:0 1433:0 1458:0 1464:0 1475:0 1483:0 1487:0 1488:0 1502:0 1511:0 1514:0 1520:0 1526:0 1549:0 1551:0 1552:0 1559:0 1569:0 1570:0 1584:0 1589:0 1598:0 1602:0 1604:0 1614:0 1616:0 1626:0 1627:0 1639:0 1658:0 1679:0 1683:0 1685:0 1686:0 1706:0 1723:1 1724:0 1730:0 1736:0 1773:0 1777:0 1778:0 1779:0 1787:0 1801:0 1811:0 1820:0 1822:0 1845:0 1850:0 1861:0 1863:0 1870:0 1874:0 1877:0 1895:0 1908:0 1912:0 1914:0 1916:0 1925:0 1933:0 1944:0 1946:0 1975:0 2014:0 2035:0 2042:0 2043:0 2063:0 2105:0 2127:0 2129:0 2133:0 2140:0 2150:0 2157:0 2172:0 2180:0 2181:0 2182:0 
0.8381423974902599 15:0 20:0 32:0 34:0 41:0 50:0 54:0 73:0 77:0 92:0 96:0 97:0 107:0 113:0 124:0 125:0 138:0 140:0 144:0 153:0 156:0 162:0 164:0 170:1 173:0 253:0 262:0 270:0 274:0 276:0 287:0 291:0 292:0 293:0 297:0 299:0 312:0 317:0 318:0 323:0 328:0 338:0 358:0 362:0 379:0 381:0 382:0 405:0 406:0 413:1 455:0 459:0 475:0 476:0 481:0 491:0 500:0 503:0 508:0 522:0 526:0 528:0 534:0 538:0 539:0 540:0 541:0 551:0 552:0 576:0 578:0 586:0 590:0 593:0 600:0 608:0 613:0 621:1 678:0 694:0 696:0 707:0 715:0 717:0 720:0 723:0 726:0 732:0 737:0 740:0 743:0 744:0 747:0 758:0 762:0 764:0 769:0 806:0 810:0 827:0 834:0 854:0 860:0 884:0 887:0 900:0 901:0 916:0 923:0 930:0 933:0 946:0 965:0 971:0 973:0 977:0 981:0 997:0 1000:0 1004:0 1016:0 1031:0 1034:0 1035:0 1041:0 1048:0 1056:0 1064:0 1106:0 1114:1 1148:0 1149:0 1151:0 1156:0 1157:0 1161:0 1163:0 1170:0 1181:0 1184:0 1189:0 1230:0 1248:0 1251:0 1254:0 1257:0 1274:0 1277:0 1278:0 1288:0 1295:0 1297:1 1299:0 1300:0 1324:0 1326:1 1331:0 1350:0 1352:0 1353:0 1366:0 1370:0 1373:0 1379:0 1385:0 1387:0 1409:0 1419:0 1429:0 1431:0 1433:0 1458:0 1464:0 1475:0 1483:0 1487:0 1488:0 1502:0 1511:0 1514:0 1520:0 1526:0 1549:0 1551:0 1552:0 1559:0 1569:0 1570:0 1584:0 1589:0 1598:0 1602:0 1604:0 1614:0 1616:0 1626:0 1627:0 1639:0 1658:0 1679:0 1683:0 1685:0 1686:0 1706:0 1723:0 1724:0 1730:0 1736:0 1773:0 1777:0 1778:1 1779:0 1787:0 1801:0 1811:0 1820:0 1822:0 1845:0 1850:0 1861:0 1863:0 1870:0 1874:0 1877:0 1895:0 1908:0 1912:0 1914:0 1916:0 1925:0 1933:1 1944:0 1946:0 1975:0 2014:0 2035:0 2042:0 2043:0 2063:0 2105:0 2127:0 2129:0 2133:0 2140:0 2150:0 2157:0 2172:1 2180:0 2181:0 2182:0 
0.4329036625564107 15:0 20:0 32:0 34:0 41:0 50:0 54:0 73:0 77:0 92:0 96:0 97:0 107:0 113:0 124:0 125:0 138:0 140:0 144:0 153:0 156:0 162:0 164:0 170:0 173:0 253:0 262:0 270:0 274:0 276:0 287:0 291:0 292:0 293:1 297:0 299:0 312:0 317:0 318:0 323:0 328:0 338:0 358:0 362:0 379:0 381:0 382:0 405:0 406:0 413:0 455:1 459:0 475:0 476:0 481:0 491:0 500:0 503:0 508:0 522:0 526:0 528:0 534:0 538:0 539:0 540:0 541:0 551:0 552:0 576:0 578:0 586:0 590:0 593:0 600:0 608:0 613:0 621:0 678:0 694:0 696:0 707:0 715:0 717:0 720:0 723:0 726:0 732:0 737:0 740:0 743:0 744:0 747:0 758:0 762:0 764:0 769:0 806:0 810:0 827:0 834:0 854:0 860:0 884:0 887:0 900:0 901:1 916:0 923:0 930:0 933:0 946:0 965:0 971:0 973:0 977:0 981:1 997:0 1000:0 1004:0 1016:0 1031:0 1034:0 1035:0 1041:0 1048:0 1056:0 1064:0 1106:1 1114:0 1148:0 1149:0 1151:0 1156:0 1157:0 1161:0 1163:0 1170:0 1181:0 1184:0 1189:0 1230:0 1248:0 1251:0 1254:0 1257:0 1274:0 1277:0 1278:0 1288:1 1295:0 1297:0 1299:0 1300:0 1324:0 1326:1 1331:0 1350:0 1352:0 1353:0 1366:0 1370:0 1373:0 1379:0 1385:0 1387:0 1409:0 1419:0 1429:0 1431:0 1433:0 1458:0 1464:0 1475:0 1483:0 1487:0 1488:0 1502:0 1511:0 1514:0 1520:0 1526:0 1549:0 1551:0 1552:0 1559:0 1569:0 1570:0 1584:0 1589:0 1598:0 1602:0 1604:0 1614:0 1616:0 1626:0 1627:0 1639:0 1658:0 1679:0 1683:0 1685:0 1686:0 1706:0 1723:0 1724:0 1730:0 1736:0 1773:0 1777:0 1778:0 1779:0 1787:0 1801:0 1811:0 1820:1 1822:0 1845:0 1850:0 1861:0 1863:0 1870:0 1874:0 1877:0 1895:0 1908:0 1912:0 1914:0 1916:0 1925:0 1933:0 1944:0 1946:0 1975:0 2014:0 2035:0 2042:0 2043:0 2063:0 2105:0 2127:0 2129:0 2133:0 2140:0 2150:0 2157:0 2172:0 2180:0 2181:0 2182:0 
1.136865234425464 15:0 20:0 32:0 34:0 41:0 50:0 54:0 73:0 77:0 92:0 96:0 97:0 107:0 113:0 124:0 125:0 138:1 140:0 144:0 153:0 156:0 162:0 164:0 170:0 173:0 253:0 262:0 270:0 274:0 276:0 287:0 291:0 292:0 293:0 297:0 299:0 312:0 317:0 318:0 323:0 328:0 338:0 358:0 362:0 379:0 381:0 382:0 405:0 406:0 413:0 455:0 459:0 475:0 476:0 481:0 491:0 500:0 503:0 508:0 522:0 526:0 528:0 534:0 538:0 539:1 540:0 541:0 551:0 552:0 576:0 578:0 586:0 590:0 593:0 600:0 608:0 613:0 621:0 678:0 694:0 696:0 707:0 715:1 717:0 720:0 723:0 726:0 732:0 737:0 740:0 743:0 744:0 747:1 758:0 762:0 764:0 769:0 806:0 810:0 827:0 834:0 854:0 860:0 884:0 887:0 900:0 901:0 916:0 923:0 930:0 933:0 946:0 965:0 971:0 973:0 977:1 981:0 997:0 1000:0 1004:0 1016:0 1031:0 1034:0 1035:0 1041:0 1048:0 1056:0 1064:0 1106:0 1114:0 1148:0 1149:0 1151:0 1156:0 1157:1 1161:0 1163:0 1170:0 1181:0 1184:0 1189:0 1230:0 1248:0 1251:0 1254:0 1257:0 1274:0 1277:0 1278:0 1288:0 1295:1 1297:0 1299:0 1300:0 1324:0 1326:0 1331:0 1350:0 1352:0 1353:0 1366:0 1370:0 1373:0 1379:0 1385:0 1387:0 1409:0 1419:0 1429:0 1431:0 1433:0 1458:0 1464:0 1475:0 1483:0 1487:0 1488:0 1502:0 1511:0 1514:0 1520:0 1526:0 1549:0 1551:0 1552:0 1559:0 1569:0 1570:0 1584:0 1589:0 1598:0 1602:1 1604:0 1614:0 1616:0 1626:0 1627:0 1639:0 1658:0 1679:0 1683:0 1685:0 1686:0 1706:0 1723:0 1724:0 1730:0 1736:0 1773:0 1777:0 1778:1 1779:0 1787:0 1801:0 1811:0 1820:0 1822:0 1845:0 1850:0 1861:0 1863:0 1870:0 1874:0 1877:0 1895:0 1908:0 1912:0 1914:0 1916:0 1925:0 1933:0 1944:0 1946:0 1975:0 2014:0 2035:0 2042:0 2043:0 2063:0 2105:0 2127:0 2129:0 2133:0 2140:0 2150:0 2157:0 2172:0 2180:0 2181:0 2182:0 
0.4316124567040192 15:0 20:0 32:0 34:0 41:0 50:0 54:0 73:0 77:0 92:0 96:0 97:0 107:0 113:0 124:0 125:0 138:0 140:0 144:0 153:0 156:0 162:0 164:0 170:0 173:0 253:0 262:0 270:0 274:0 276:0 287:0 291:0 292:0 293:0 297:0 299:0 312:0 317:0 318:0 323:0 328:0 338:0 358:0 362:0 379:0 381:0 382:0 405:0 406:0 413:0 455:1 459:0 475:0 476:0 481:0 491:0 500:0 503:0 508:0 522:0 526:0 528:0 534:0 538:0 539:0 540:0 541:0 551:0 552:0 576:0 578:0 586:0 590:0 593:0 600:0 608:0 613:0 621:0 678:0 694:0 696:0 707:0 715:1 717:0 720:0 723:0 726:0 732:0 737:0 740:0 743:0 744:0 747:0 758:0 762:0 764:0 769:0 806:0 810:0 827:0 834:0 854:0 860:0 884:1 887:0 900:0 901:0 916:0 923:0 930:0 933:0 946:0 965:0 971:0 973:0 977:0 981:0 997:0 1000:0 1004:0 1016:0 1031:0 1034:0 1035:0 1041:0 1048:0 1056:0 1064:0 1106:0 1114:1 1148:0 1149:0 1151:0 1156:0 1157:0 1161:0 1163:0 1170:0 1181:0 1184:0 1189:0 1230:0 1248:0 1251:0 1254:0 1257:0 1274:0 1277:0 1278:0 1288:0 1295:0 1297:0 1299:0 1300:0 1324:2 1326:0 1331:0 1350:0 1352:2 1353:0 1366:0 1370:0 1373:0 1379:0 1385:0 1387:0 1409:0 1419:0 1429:0 1431:0 1433:0 1458:0 1464:0 1475:0 1483:0 1487:0 1488:0 1502:0 1511:0 1514:0 1520:0 1526:0 1549:0 1551:0 1552:0 1559:0 1569:0 1570:0 1584:0 1589:0 1598:0 1602:0 1604:0 1614:0 1616:0 1626:0 1627:0 1639:0 1658:0 1679:0 1683:0 1685:0 1686:0 1706:0 1723:0 1724:0 1730:0 1736:0 1773:0 1777:0 1778:1 1779:0 1787:0 1801:0 1811:0 1820:0 1822:0 1845:0 1850:0 1861:0 1863:0 1870:0 1874:0 1877:0 1895:0 1908:0 1912:0 1914:0 1916:0 1925:0 1933:1 1944:0 1946:0 1975:0 2014:0 2035:0 2042:0 2043:0 2063:0 2105:0 2127:0 2129:0 2133:0 2140:0 2150:0 2157:0 2172:0 2180:0 2181:0 2182:0 
0.7538214318546881 15:0 20:0 32:0 34:0 41:0 50:0 54:0 73:1 77:0 92:0 96:0 97:0 107:0 113:0 124:0 125:0 138:0 140:0 144:0 153:0 156:0 162:0 164:0 170:0 173:0 253:0 262:0 270:0 274:0 276:0 287:0 291:0 292:0 293:0 297:0 299:0 312:0 317:0 318:0 323:0 328:0 338:0 358:0 362:0 379:0 381:0 382:0 405:0 406:0 413:0 455:0 459:0 475:0 476:0 481:0 491:0 500:0 503:0 508:0 522:0 526:0 528:0 534:0 538:0 539:0 540:0 541:0 551:0 552:0 576:0 578:0 586:1 590:0 593:0 600:0 608:0 613:0 621:0 678:0 694:0 696:0 707:0 715:0 717:0 720:0 723:0 726:0 732:0 737:0 740:0 743:0 744:0 747:0 758:0 762:0 764:0 769:0 806:0 810:0 827:0 834:0 854:0 860:0 884:0 887:0 900:1 901:0 916:0 923:0 930:0 933:0 946:0 965:0 971:0 973:0 977:1 981:0 997:0 1000:0 1004:0 1016:1 1031:0 1034:0 1035:0 1041:0 1048:0 1056:0 1064:0 1106:0 1114:0 1148:0 1149:0 1151:0 1156:0 1157:0 1161:0 1163:0 1170:0 1181:0 1184:0 1189:0 1230:0 1248:0 1251:0 1254:0 1257:0 1274:0 1277:0 1278:0 1288:0 1295:0 1297:0 1299:0 1300:0 1324:0 1326:0 1331:0 1350:0 1352:0 1353:0 1366:0 1370:0 1373:0 1379:0 1385:0 1387:0 1409:0 1419:0 1429:0 1431:0 1433:0 1458:0 1464:0 1475:0 1483:0 1487:0 1488:0 1502:0 1511:0 1514:0 1520:0 1526:0 1549:0 1551:0 1552:1 1559:0 1569:0 1570:0 1584:0 1589:0 1598:0 1602:0 1604:0 1614:0 1616:0 1626:0 1627:0 1639:0 1658:0 1679:0 1683:0 1685:0 1686:0 1706:1 1723:0 1724:0 1730:0 1736:0 1773:0 1777:0 1778:0 1779:0 1787:0 1801:0 1811:0 1820:0 1822:0 1845:0 1850:0 1861:0 1863:0 1870:0 1874:0 1877:0 1895:0 1908:0 1912:0 1914:0 1916:0 1925:0 1933:0 1944:0 1946:0 1975:0 2014:0 2035:0 2042:0 2043:0 2063:0 2105:0 2127:0 2129:0 2133:0 2140:0 2150:0 2157:0 2172:0 2180:0 2181:0 2182:0 
0.6314724286294918 15:0 20:0 32:0 34:0 41:0 50:0 54:0 73:0 77:0 92:0 96:0 97:0 107:0 113:0 124:0 125:0 138:0 140:0 144:0 153:0 156:0 162:0 164:0 170:0 173:0 253:1 262:0 270:0 274:0 276:0 287:0 291:0 292:0 293:0 297:0 299:0 312:0 317:0 318:0 323:0 328:0 338:0 358:0 362:0 379:0 381:0 382:0 405:0 406:0 413:0 455:0 459:0 475:0 476:0 481:0 491:0 500:0 503:0 508:0 522:0 526:0 528:0 534:0 538:0 539:0 540:0 541:0 551:0 552:0 576:0 578:0 586:1 590:0 593:0 600:0 608:1 613:0 621:0 678:0 694:0 696:0 707:0 715:0 717:0 720:0 723:0 726:0 732:0 737:0 740:0 743:0 744:0 747:0 758:0 762:0 764:0 769:0 806:0 810:0 827:0 834:0 854:0 860:0 884:0 887:0 900:0 901:0 916:0 923:0 930:0 933:0 946:0 965:0 971:0 973:0 977:1 981:0 997:0 1000:0 1004:0 1016:0 1031:0 1034:1 1035:0 1041:0 1048:0 1056:0 1064:0 1106:0 1114:0 1148:0 1149:0 1151:0 1156:0 1157:0 1161:0 1163:0 1170:0 1181:0 1184:0 1189:0 1230:0 1248:0 1251:0 1254:0 1257:0 1274:0 1277:0 1278:0 1288:1 1295:0 1297:0 1299:0 1300:0 1324:1 1326:0 1331:0 1350:0 1352:0 1353:0 1366:0 1370:0 1373:0 1379:0 1385:0 1387:0 1409:0 1419:0 1429:0 1431:0 1433:0 1458:0 1464:0 1475:0 1483:0 1487:0 1488:0 1502:0 1511:0 1514:0 1520:0 1526:0 1549:0 1551:0 1552:0 1559:0 1569:0 1570:0 1584:0 1589:0 1598:0 1602:0 1604:0 1614:0 1616:0 1626:0 1627:0 1639:0 1658:0 1679:0 1683:0 1685:0 1686:0 1706:0 1723:0 1724:0 1730:0 1736:0 1773:0 1777:1 1778:0 1779:0 1787:0 1801:0 1811:0 1820:0 1822:0 1845:0 1850:0 1861:0 1863:0 1870:0 1874:0 1877:0 1895:0 1908:0 1912:0 1914:0 1916:0 1925:0 1933:0 1944:0 1946:0 1975:2 2014:0 2035:0 2042:0 2043:0 2063:0 2105:0 2127:0 2129:0 2133:0 2140:0 2150:0 2157:0 2172:0 2180:0 2181:0 2182:1 
0.1462716193903892 15:0 20:0 32:0 34:0 41:0 50:0 54:0 73:0 77:0 92:0 96:0 97:0 107:0 113:0 124:0 125:0 138:0 140:0 144:0 153:0 156:0 162:0 164:0 170:0 173:0 253:0 262:0 270:0 274:0 276:0 287:0 291:0 292:0 293:1 297:1 299:0 312:0 317:0 318:0 323:0 328:0 338:0 358:0 362:0 379:0 381:0 382:0 405:1 406:1 413:0 455:0 459:0 475:0 476:0 481:0 491:0 500:0 503:0 508:0 522:0 526:0 528:0 534:0 538:0 539:1 540:0 541:0 551:0 552:0 576:0 578:0 586:0 590:0 593:0 600:0 608:0 613:0 621:0 678:0 694:0 696:0 707:0 715:0 717:0 720:1 723:0 726:0 732:0 737:0 740:0 743:0 744:0 747:0 758:0 762:0 764:0 769:0 806:0 810:0 827:0 834:0 854:0 860:0 884:0 887:0 900:0 901:0 916:0 923:0 930:0 933:0 946:0 965:0 971:0 973:0 977:0 981:0 997:0 1000:0 1004:0 1016:0 1031:0 1034:0 1035:0 1041:0 1048:0 1056:0 1064:0 1106:0 1114:0 1148:0 1149:0 1151:0 1156:0 1157:0 1161:0 1163:0 1170:0 1181:0 1184:0 1189:0 1230:0 1248:0 1251:0 1254:0 1257:0 1274:0 1277:0 1278:0 1288:0 1295:0 1297:1 1299:0 1300:0 1324:0 1326:0 1331:0 1350:0 1352:0 1353:0 1366:0 1370:1 1373:0 1379:0 1385:0 1387:0 1409:0 1419:0 1429:0 1431:0 1433:0 1458:0 1464:0 1475:0 1483:0 1487:0 1488:0 1502:0 1511:0 1514:0 1520:0 1526:0 1549:0 1551:0 1552:0 1559:0 1569:0 1570:0 1584:0 1589:0 1598:0 1602:0 1604:0 1614:0 1616:1 1626:0 1627:0 1639:0 1658:0 1679:0 1683:0 1685:0 1686:0 1706:0 1723:0 1724:0 1730:0 1736:1 1773:0 1777:0 1778:0 1779:0 1787:0 1801:0 1811:0 1820:0 1822:0 1845:0 1850:0 1861:0 1863:0 1870:0 1874:0 1877:0 1895:0 1908:0 1912:0 1914:0 1916:0 1925:0 1933:0 1944:0 1946:0 1975:0 2014:0 2035:0 2042:0 2043:0 2063:0 2105:0 2127:0 2129:0 2133:0 2140:0 2150:0 2157:0 2172:0 2180:0 2181:0 2182:0 
1.870141027916977 15:0 20:0 32:0 34:0 41:0 50:0 54:0 73:0 77:0 92:0 96:0 97:0 107:0 113:0 124:0 125:0 138:0 140:0 144:0 153:0 156:0 162:0 164:0 170:0 173:0 253:0 262:0 270:0 274:0 276:0 287:0 291:0 292:0 293:0 297:0 299:0 312:0 317:0 318:0 323:0 328:0 338:0 358:0 362:0 379:0 381:0 382:0 405:0 406:0 413:0 455:0 459:0 475:0 476:0 481:0 491:0 500:0 503:0 508:0 522:0 526:0 528:0 534:0 538:0 539:0 540:0 541:0 551:0 552:0 576:0 578:0 586:0 590:0 593:0 600:0 608:0 613:0 621:0 678:1 694:0 696:0 707:0 715:0 717:0 720:0 723:0 726:0 732:0 737:0 740:0 743:0 744:0 747:0 758:0 762:0 764:0 769:0 806:0 810:0 827:0 834:0 854:0 860:0 884:0 887:0 900:0 901:0 916:0 923:1 930:0 933:0 946:0 965:0 971:0 973:0 977:0 981:0 997:0 1000:0 1004:0 1016:0 1031:0 1034:0 1035:0 1041:0 1048:0 1056:0 1064:0 1106:0 1114:0 1148:0 1149:0 1151:0 1156:0 1157:0 1161:0 1163:0 1170:0 1181:0 1184:0 1189:0 1230:1 1248:0 1251:0 1254:0 1257:0 1274:0 1277:0 1278:0 1288:0 1295:0 1297:0 1299:0 1300:0 1324:0 1326:0 1331:0 1350:0 1352:0 1353:0 1366:0 1370:0 1373:0 1379:0 1385:0 1387:0 1409:0 1419:0 1429:0 1431:0 1433:0 1458:0 1464:0 1475:0 1483:0 1487:0 1488:0 1502:0 1511:0 1514:0 1520:0 1526:0 1549:0 1551:0 1552:0 1559:0 1569:0 1570:0 1584:0 1589:0 1598:0 1602:0 1604:0 1614:0 1616:0 1626:0 1627:0 1639:0 1658:0 1679:0 1683:0 1685:0 1686:0 1706:0 1723:0 1724:0 1730:0 1736:0 1773:0 1777:0 1778:0 1779:0 1787:0 1801:0 1811:0 1820:0 1822:0 1845:0 1850:0 1861:0 1863:0 1870:0 1874:0 1877:0 1895:0 1908:0 1912:0 1914:0 1916:0 1925:1 1933:0 1944:0 1946:0 1975:0 2014:0 2035:0 2042:0 2043:0 2063:0 2105:0 2127:0 2129:0 2133:0 2140:0 2150:0 2157:0 2172:0 2180:0 2181:0 2182:0 
0.00805256978638234 15:0 20:0 32:0 34:0 41:0 50:0 54:0 73:1 77:0 92:0 96:0 97:1 107:0 113:0 124:0 125:0 138:0 140:1 144:0 153:0 156:0 162:0 164:0 170:0 173:0 253:0 262:0 270:0 274:0 276:0 287:0 291:0 292:1 293:0 297:0 299:0 312:0 317:0 318:0 323:0 328:0 338:0 358:0 362:0 379:0 381:0 382:0 405:0 406:0 413:0 455:0 459:0 475:0 476:0 481:0 491:0 500:0 503:0 508:1 522:0 526:0 528:0 534:0 538:0 539:0 540:1 541:0 551:0 552:0 576:0 578:0 586:0 590:0 593:0 600:0 608:0 613:0 621:0 678:0 694:0 696:0 707:0 715:0 717:0 720:0 723:0 726:0 732:0 737:0 740:0 743:0 744:0 747:0 758:0 762:0 764:0 769:0 806:0 810:0 827:0 834:0 854:0 860:0 884:0 887:0 900:0 901:0 916:0 923:0 930:0 933:0 946:0 965:0 971:0 973:0 977:0 981:0 997:0 1000:0 1004:0 1016:0 1031:0 1034:0 1035:0 1041:0 1048:0 1056:0 1064:0 1106:0 1114:0 1148:1 1149:0 1151:0 1156:0 1157:0 1161:0 1163:0 1170:0 1181:0 1184:0 1189:0 1230:0 1248:0 1251:0 1254:0 1257:0 1274:0 1277:0 1278:0 1288:0 1295:0 1297:0 1299:0 1300:0 1324:0 1326:0 1331:0 1350:0 1352:0 1353:0 1366:0 1370:0 1373:0 1379:0 1385:0 1387:1 1409:0 1419:0 1429:0 1431:0 1433:0 1458:0 1464:0 1475:0 1483:0 1487:0 1488:0 1502:0 1511:0 1514:0 1520:0 1526:0 1549:0 1551:0 1552:0 1559:0 1569:0 1570:0 1584:1 1589:0 1598:0 1602:0 1604:0 1614:0 1616:0 1626:0 1627:0 1639:0 1658:0 1679:0 1683:0 1685:0 1686:0 1706:0 1723:0 1724:0 1730:0 1736:0 1773:0 1777:0 1778:0 1779:0 1787:0 1801:0 1811:0 1820:0 1822:0 1845:0 1850:0 1861:1 1863:0 1870:0 1874:0 1877:0 1895:0 1908:0 1912:0 1914:0 1916:0 1925:0 1933:0 1944:0 1946:0 1975:0 2014:0 2035:0 2042:0 2043:0 2063:0 2105:0 2127:0 2129:0 2133:0 2140:0 2150:0 2157:0 2172:0 2180:0 2181:0 2182:0 
0.002695289466063398 15:0 20:0 32:0 34:0 41:0 50:0 54:0 73:0 77:0 92:0 96:0 97:0 107:0 113:0 124:0 125:0 138:1 140:0 144:0 153:0 156:0 162:0 164:0 170:0 173:0 253:0 262:0 270:0 274:0 276:0 287:0 291:0 292:0 293:0 297:0 299:0 312:0 317:0 318:0 323:0 328:0 338:0 358:0 362:0 379:0 381:0 382:0 405:0 406:0 413:0 455:0 459:0 475:0 476:0 481:0 491:0 500:0 503:0 508:0 522:0 526:0 528:0 534:0 538:0 539:0 540:0 541:0 551:0 552:0 576:0 578:1 586:0 590:0 593:0 600:0 608:0 613:0 621:0 678:0 694:0 696:0 707:0 715:0 717:0 720:0 723:0 726:0 732:0 737:0 740:0 743:0 744:0 747:0 758:0 762:0 764:0 769:0 806:0 810:0 827:0 834:0 854:0 860:0 884:0 887:0 900:0 901:0 916:0 923:0 930:0 933:0 946:0 965:0 971:0 973:0 977:1 981:0 997:0 1000:0 1004:0 1016:0 1031:0 1034:0 1035:0 1041:0 1048:0 1056:0 1064:0 1106:0 1114:1 1148:0 1149:0 1151:0 1156:0 1157:0 1161:0 1163:0 1170:0 1181:0 1184:0 1189:0 1230:0 1248:0 1251:0 1254:0 1257:0 1274:0 1277:0 1278:0 1288:1 1295:0 1297:0 1299:0 1300:0 1324:3 1326:0 1331:0 1350:0 1352:0 1353:0 1366:0 1370:0 1373:0 1379:0 1385:0 1387:1 1409:0 1419:0 1429:0 1431:0 1433:0 1458:0 1464:0 1475:0 1483:0 1487:0 1488:0 1502:0 1511:0 1514:0 1520:0 1526:0 1549:0 1551:0 1552:0 1559:1 1569:0 1570:0 1584:0 1589:0 1598:0 1602:0 1604:0 1614:0 1616:0 1626:0 1627:0 1639:0 1658:0 1679:0 1683:0 1685:0 1686:0 1706:0 1723:0 1724:0 1730:0 1736:0 1773:0 1777:0 1778:0 1779:0 1787:0 1801:0 1811:0 1820:0 1822:0 1845:0 1850:0 1861:0 1863:1 1870:0 1874:0 1877:0 1895:0 1908:0 1912:0 1914:0 1916:0 1925:0 1933:0 1944:0 1946:0 1975:1 2014:0 2035:0 2042:0 2043:0 2063:0 2105:0 2127:0 2129:0 2133:0 2140:0 2150:0 2157:0 2172:0 2180:0 2181:0 2182:0 
0.1578477212248237 15:0 20:0 32:0 34:0 41:0 50:0 54:0 73:0 77:0 92:0 96:0 97:0 107:0 113:0 124:0 125:0 138:1 140:0 144:0 153:0 156:0 162:0 164:0 170:0 173:0 253:0 262:0 270:0 274:0 276:0 287:0 291:0 292:0 293:0 297:0 299:0 312:0 317:0 318:0 323:0 328:0 338:0 358:0 362:0 379:0 381:0 382:0 405:0 406:0 413:0 455:0 459:0 475:0 476:0 481:0 491:0 500:0 503:0 508:0 522:0 526:0 528:0 534:0 538:0 539:0 540:0 541:0 551:0 552:0 576:0 578:0 586:0 590:0 593:0 600:0 608:0 613:0 621:0 678:0 694:0 696:0 707:0 715:0 717:0 720:0 723:0 726:0 732:0 737:0 740:0 743:0 744:0 747:0 758:0 762:0 764:0 769:0 806:0 810:0 827:0 834:0 854:0 860:0 884:0 887:0 900:0 901:0 916:0 923:0 930:0 933:0 946:0 965:0 971:0 973:0 977:0 981:0 997:0 1000:0 1004:0 1016:1 1031:0 1034:0 1035:0 1041:0 1048:1 1056:0 1064:0 1106:0 1114:0 1148:0 1149:1 1151:0 1156:0 1157:0 1161:0 1163:0 1170:0 1181:1 1184:0 1189:0 1230:0 1248:0 1251:0 1254:0 1257:0 1274:0 1277:0 1278:0 1288:0 1295:0 1297:0 1299:0 1300:0 1324:0 1326:0 1331:0 1350:0 1352:0 1353:0 1366:0 1370:0 1373:0 1379:0 1385:0 1387:0 1409:0 1419:0 1429:0 1431:0 1433:0 1458:0 1464:1 1475:0 1483:0 1487:0 1488:0 1502:1 1511:0 1514:0 1520:0 1526:0 1549:0 1551:0 1552:0 1559:0 1569:0 1570:0 1584:0 1589:0 1598:0 1602:0 1604:0 1614:0 1616:0 1626:0 1627:0 1639:0 1658:0 1679:0 1683:0 1685:0 1686:0 1706:0 1723:0 1724:0 1730:0 1736:0 1773:0 1777:0 1778:0 1779:0 1787:0 1801:0 1811:0 1820:0 1822:0 1845:0 1850:0 1861:0 1863:0 1870:0 1874:0 1877:0 1895:0 1908:0 1912:0 1914:0 1916:0 1925:0 1933:0 1944:0 1946:0 1975:0 2014:0 2035:0 2042:0 2043:0 2063:0 2105:0 2127:0 2129:0 2133:0 2140:0 2150:0 2157:0 2172:0 2180:0 2181:0 2182:0 
8 15:1 20:0 32:0 34:0 41:0 50:0 54:0 73:0 77:0 92:1 96:1 97:0 107:0 113:0 124:0 125:0 138:0 140:1 144:0 153:0 156:1 162:0 164:0 170:0 173:1 253:0 262:0 270:0 274:0 276:0 287:0 291:0 292:1 293:0 297:0 299:0 312:1 317:0 318:0 323:0 328:0 338:0 358:0 362:1 379:1 381:0 382:0 405:0 406:0 413:0 455:1 459:1 475:0 476:0 481:0 491:0 500:0 503:0 508:0 522:0 526:1 528:0 534:1 538:0 539:0 540:0 541:0 551:0 552:0 576:0 578:0 586:1 590:0 593:1 600:0 608:0 613:0 621:1 678:0 694:0 696:0 707:0 715:1 717:0 720:0 723:0 726:0 732:0 737:0 740:1 743:0 744:0 747:0 758:0 762:0 764:0 769:0 806:1 810:0 827:0 834:1 854:0 860:0 884:0 887:1 900:0 901:2 916:0 923:0 930:0 933:0 946:0 965:0 971:1 973:0 977:1 981:0 997:0 1000:0 1004:0 1016:0 1031:0 1034:0 1035:0 1041:1 1048:0 1056:0 1064:0 1106:1 1114:1 1148:0 1149:0 1151:0 1156:0 1157:0 1161:0 1163:0 1170:1 1181:0 1184:1 1189:0 1230:0 1248:1 1251:0 1254:0 1257:0 1274:0 1277:0 1278:1 1288:1 1295:0 1297:0 1299:0 1300:0 1324:1 1326:0 1331:1 1350:0 1352:0 1353:0 1366:0 1370:0 1373:0 1379:0 1385:0 1387:1 1409:0 1419:1 1429:0 1431:0 1433:0 1458:0 1464:1 1475:0 1483:0 1487:0 1488:0 1502:1 1511:0 1514:0 1520:0 1526:0 1549:0 1551:0 1552:2 1559:0 1569:1 1570:0 1584:0 1589:0 1598:0 1602:0 1604:0 1614:1 1616:0 1626:1 1627:0 1639:0 1658:0 1679:0 1683:0 1685:1 1686:0 1706:1 1723:0 1724:0 1730:0 1736:1 1773:1 1777:0 1778:0 1779:0 1787:0 1801:0 1811:0 1820:0 1822:0 1845:0 1850:0 1861:0 1863:1 1870:0 1874:0 1877:0 1895:0 1908:1 1912:0 1914:0 1916:0 1925:0 1933:2 1944:0 1946:0 1975:1 2014:0 2035:0 2042:1 2043:0 2063:1 2105:0 2127:0 2129:0 2133:1 2140:0 2150:1 2157:0 2172:0 2180:0 2181:0 2182:1 
0.08983316006381131 15:0 20:1 32:0 34:0 41:0 50:0 54:0 73:0 77:0 92:1 96:0 97:0 107:0 113:0 124:0 125:0 138:0 140:0 144:0 153:0 156:0 162:0 164:0 170:0 173:0 253:0 262:0 270:0 274:0 276:0 287:0 291:0 292:0 293:0 297:0 299:0 312:0 317:0 318:0 323:0 328:0 338:0 358:0 362:0 379:0 381:0 382:0 405:0 406:0 413:0 455:0 459:0 475:0 476:0 481:0 491:0 500:0 503:0 508:0 522:0 526:0 528:0 534:0 538:0 539:0 540:0 541:0 551:0 552:0 576:0 578:0 586:0 590:0 593:0 600:0 608:0 613:0 621:0 678:0 694:0 696:0 707:0 715:0 717:0 720:0 723:0 726:0 732:0 737:0 740:0 743:0 744:0 747:0 758:0 762:0 764:0 769:0 806:0 810:0 827:0 834:0 854:0 860:0 884:0 887:0 900:0 901:1 916:0 923:0 930:0 933:0 946:0 965:0 971:0 973:0 977:1 981:0 997:0 1000:0 1004:0 1016:0 1031:1 1034:0 1035:0 1041:0 1048:0 1056:0 1064:0 1106:0 1114:0 1148:0 1149:0 1151:0 1156:0 1157:0 1161:0 1163:0 1170:0 1181:0 1184:0 1189:0 1230:0 1248:0 1251:0 1254:0 1257:0 1274:0 1277:0 1278:0 1288:0 1295:0 1297:0 1299:0 1300:0 1324:0 1326:0 1331:0 1350:0 1352:0 1353:0 1366:0 1370:0 1373:0 1379:0 1385:0 1387:1 1409:1 1419:0 1429:0 1431:0 1433:0 1458:0 1464:0 1475:0 1483:0 1487:0 1488:0 1502:0 1511:0 1514:0 1520:0 1526:0 1549:0 1551:0 1552:1 1559:0 1569:0 1570:0 1584:0 1589:0 1598:0 1602:0 1604:0 1614:0 1616:0 1626:0 1627:0 1639:0 1658:0 1679:0 1683:0 1685:0 1686:0 1706:0 1723:0 1724:0 1730:0 1736:0 1773:0 1777:0 1778:0 1779:0 1787:0 1801:0 1811:0 1820:0 1822:0 1845:0 1850:0 1861:0 1863:0 1870:0 1874:0 1877:0 1895:0 1908:0 1912:0 1914:0 1916:0 1925:0 1933:0 1944:0 1946:0 1975:0 2014:0 2035:0 2042:0 2043:0 2063:0 2105:0 2127:0 2129:0 2133:0 2140:0 2150:0 2157:0 2172:0 2180:0 2181:0 2182:0 
1.041208631253488 15:0 20:1 32:0 34:0 41:0 50:0 54:0 73:0 77:0 92:0 96:0 97:0 107:0 113:0 124:0 125:0 138:0 140:0 144:0 153:0 156:0 162:0 164:0 170:0 173:0 253:0 262:0 270:0 274:0 276:0 287:0 291:0 292:0 293:0 297:0 299:0 312:0 317:0 318:0 323:0 328:0 338:0 358:0 362:0 379:0 381:0 382:0 405:0 406:1 413:0 455:0 459:0 475:0 476:0 481:0 491:0 500:0 503:0 508:0 522:0 526:0 528:0 534:0 538:0 539:0 540:0 541:0 551:0 552:0 576:0 578:0 586:0 590:0 593:0 600:0 608:0 613:0 621:0 678:0 694:0 696:0 707:0 715:0 717:0 720:0 723:0 726:0 732:0 737:0 740:1 743:0 744:0 747:0 758:0 762:0 764:0 769:0 806:0 810:0 827:0 834:0 854:0 860:0 884:0 887:0 900:0 901:0 916:0 923:0 930:0 933:0 946:0 965:0 971:1 973:0 977:1 981:0 997:0 1000:0 1004:0 1016:0 1031:0 1034:0 1035:0 1041:0 1048:0 1056:0 1064:0 1106:0 1114:0 1148:0 1149:0 1151:0 1156:0 1157:0 1161:0 1163:0 1170:0 1181:0 1184:0 1189:0 1230:0 1248:0 1251:0 1254:0 1257:0 1274:0 1277:0 1278:0 1288:0 1295:0 1297:0 1299:0 1300:0 1324:0 1326:0 1331:0 1350:0 1352:0 1353:0 1366:0 1370:0 1373:0 1379:0 1385:0 1387:0 1409:0 1419:0 1429:0 1431:0 1433:0 1458:0 1464:0 1475:0 1483:0 1487:0 1488:0 1502:0 1511:0 1514:0 1520:0 1526:0 1549:0 1551:0 1552:0 1559:0 1569:0 1570:0 1584:0 1589:0 1598:0 1602:0 1604:0 1614:0 1616:0 1626:0 1627:0 1639:0 1658:0 1679:0 1683:0 1685:0 1686:0 1706:0 1723:0 1724:0 1730:0 1736:0 1773:0 1777:0 1778:0 1779:0 1787:0 1801:0 1811:0 1820:0 1822:0 1845:0 1850:0 1861:0 1863:0 1870:0 1874:0 1877:0 1895:0 1908:0 1912:0 1914:0 1916:0 1925:0 1933:0 1944:0 1946:0 1975:0 2014:0 2035:0 2042:0 2043:0 2063:0 2105:0 2127:0 2129:0 2133:0 2140:0 2150:0 2157:0 2172:0 2180:0 2181:0 2182:1 
1.195841075589402 15:0 20:0 32:0 34:0 41:0 50:0 54:0 73:0 77:0 92:0 96:0 97:0 107:0 113:0 124:0 125:0 138:0 140:0 144:0 153:0 156:0 162:0 164:0 170:0 173:0 253:0 262:0 270:0 274:0 276:0 287:0 291:0 292:0 293:0 297:0 299:0 312:0 317:0 318:0 323:0 328:0 338:0 358:0 362:0 379:0 381:0 382:0 405:0 406:0 413:0 455:0 459:0 475:0 476:0 481:0 491:0 500:0 503:0 508:0 522:0 526:0 528:0 534:0 538:0 539:0 540:0 541:1 551:0 552:0 576:0 578:1 586:0 590:0 593:0 600:0 608:0 613:0 621:0 678:0 694:0 696:0 707:0 715:0 717:0 720:0 723:0 726:0 732:0 737:0 740:1 743:0 744:0 747:0 758:0 762:0 764:0 769:0 806:0 810:0 827:0 834:0 854:0 860:0 884:0 887:0 900:0 901:0 916:0 923:0 930:0 933:0 946:0 965:0 971:0 973:0 977:1 981:0 997:0 1000:0 1004:0 1016:0 1031:0 1034:0 1035:0 1041:0 1048:0 1056:0 1064:0 1106:0 1114:0 1148:0 1149:0 1151:0 1156:0 1157:0 1161:0 1163:0 1170:0 1181:0 1184:0 1189:0 1230:0 1248:0 1251:0 1254:0 1257:0 1274:0 1277:0 1278:0 1288:0 1295:0 1297:0 1299:0 1300:0 1324:0 1326:0 1331:0 1350:0 1352:0 1353:0 1366:0 1370:0 1373:0 1379:0 1385:0 1387:1 1409:0 1419:1 1429:0 1431:0 1433:0 1458:0 1464:1 1475:0 1483:0 1487:0 1488:0 1502:0 1511:0 1514:0 1520:0 1526:0 1549:0 1551:0 1552:0 1559:0 1569:0 1570:0 1584:0 1589:0 1598:0 1602:0 1604:0 1614:0 1616:0 1626:0 1627:0 1639:0 1658:0 1679:0 1683:0 1685:0 1686:0 1706:0 1723:0 1724:0 1730:0 1736:0 1773:0 1777:0 1778:0 1779:0 1787:0 1801:0 1811:0 1820:0 1822:0 1845:0 1850:0 1861:0 1863:0 1870:0 1874:0 1877:0 1895:0 1908:0 1912:0 1914:0 1916:0 1925:0 1933:0 1944:0 1946:0 1975:1 2014:0 2035:0 2042:0 2043:0 2063:0 2105:0 2127:0 2129:0 2133:0 2140:0 2150:0 2157:0 2172:0 2180:0 2181:0 2182:0 
0.01597452539945899 15:1 20:0 32:0 34:0 41:0 50:0 54:0 73:0 77:0 92:0 96:0 97:0 107:0 113:0 124:0 125:0 138:0 140:0 144:0 153:0 156:0 162:0 164:0 170:0 173:0 253:1 262:0 270:0 274:0 276:0 287:0 291:0 292:0 293:0 297:0 299:0 312:0 317:0 318:0 323:0 328:0 338:0 358:0 362:0 379:0 381:0 382:0 405:0 406:0 413:0 455:0 459:0 475:0 476:0 481:0 491:0 500:0 503:0 508:0 522:0 526:0 528:0 534:0 538:0 539:0 540:0 541:0 551:0 552:0 576:0 578:0 586:0 590:0 593:0 600:0 608:0 613:0 621:0 678:0 694:0 696:0 707:0 715:0 717:0 720:0 723:0 726:0 732:0 737:0 740:1 743:0 744:0 747:0 758:0 762:0 764:0 769:0 806:0 810:0 827:0 834:0 854:0 860:0 884:0 887:1 900:0 901:0 916:1 923:0 930:0 933:0 946:0 965:1 971:0 973:0 977:0 981:0 997:0 1000:0 1004:0 1016:0 1031:0 1034:0 1035:0 1041:0 1048:0 1056:0 1064:0 1106:0 1114:0 1148:0 1149:0 1151:0 1156:0 1157:0 1161:0 1163:0 1170:0 1181:0 1184:0 1189:0 1230:0 1248:0 1251:0 1254:0 1257:0 1274:0 1277:0 1278:0 1288:0 1295:0 1297:1 1299:0 1300:0 1324:0 1326:0 1331:0 1350:0 1352:0 1353:0 1366:0 1370:0 1373:0 1379:0 1385:0 1387:1 1409:0 1419:0 1429:0 1431:0 1433:0 1458:0 1464:0 1475:0 1483:0 1487:0 1488:0 1502:0 1511:0 1514:0 1520:0 1526:0 1549:0 1551:0 1552:0 1559:0 1569:0 1570:0 1584:0 1589:0 1598:0 1602:0 1604:0 1614:0 1616:0 1626:0 1627:0 1639:0 1658:0 1679:0 1683:0 1685:0 1686:0 1706:0 1723:1 1724:0 1730:0 1736:0 1773:0 1777:0 1778:0 1779:0 1787:0 1801:0 1811:0 1820:0 1822:0 1845:0 1850:0 1861:0 1863:0 1870:0 1874:0 1877:0 1895:0 1908:0 1912:0 1914:0 1916:0 1925:0 1933:0 1944:0 1946:0 1975:0 2014:0 2035:0 2042:0 2043:0 2063:0 2105:0 2127:0 2129:0 2133:0 2140:0 2150:0 2157:0 2172:0 2180:0 2181:0 2182:0 
1.892139426471084 15:0 20:0 32:2 34:0 41:0 50:0 54:0 73:0 77:0 92:0 96:0 97:0 107:0 113:0 124:0 125:0 138:0 140:0 144:0 153:0 156:0 162:0 164:0 170:0 173:0 253:0 262:0 270:0 274:0 276:0 287:0 291:0 292:0 293:0 297:0 299:0 312:0 317:0 318:0 323:0 328:0 338:0 358:0 362:0 379:0 381:0 382:0 405:0 406:0 413:0 455:0 459:0 475:0 476:0 481:0 491:0 500:0 503:0 508:0 522:0 526:0 528:0 534:0 538:0 539:0 540:0 541:1 551:0 552:0 576:0 578:0 586:0 590:0 593:0 600:0 608:0 613:0 621:0 678:0 694:0 696:0 707:0 715:0 717:0 720:0 723:0 726:0 732:0 737:0 740:0 743:0 744:0 747:0 758:0 762:0 764:0 769:0 806:0 810:0 827:0 834:0 854:0 860:0 884:0 887:0 900:1 901:0 916:0 923:1 930:0 933:0 946:0 965:0 971:0 973:0 977:0 981:0 997:0 1000:0 1004:0 1016:0 1031:0 1034:0 1035:0 1041:0 1048:0 1056:0 1064:0 1106:0 1114:0 1148:0 1149:0 1151:0 1156:0 1157:0 1161:0 1163:0 1170:0 1181:0 1184:0 1189:0 1230:0 1248:0 1251:0 1254:0 1257:0 1274:0 1277:0 1278:0 1288:0 1295:0 1297:0 1299:0 1300:0 1324:0 1326:0 1331:0 1350:0 1352:0 1353:0 1366:0 1370:0 1373:0 1379:0 1385:0 1387:0 1409:0 1419:0 1429:0 1431:0 1433:0 1458:0 1464:0 1475:0 1483:0 1487:0 1488:0 1502:0 1511:0 1514:0 1520:0 1526:0 1549:1 1551:0 1552:0 1559:0 1569:0 1570:0 1584:0 1589:0 1598:0 1602:0 1604:0 1614:0 1616:0 1626:0 1627:0 1639:1 1658:0 1679:0 1683:0 1685:0 1686:0 1706:0 1723:0 1724:0 1730:0 1736:0 1773:0 1777:0 1778:0 1779:0 1787:0 1801:0 1811:0 1820:0 1822:0 1845:0 1850:0 1861:0 1863:1 1870:0 1874:0 1877:0 1895:0 1908:0 1912:0 1914:0 1916:0 1925:0 1933:0 1944:0 1946:0 1975:0 2014:0 2035:0 2042:0 2043:0 2063:0 2105:0 2127:0 2129:0 2133:0 2140:0 2150:0 2157:0 2172:0 2180:0 2181:0 2182:0 
1.062214259649869 15:1 20:0 32:0 34:0 41:0 50:0 54:0 73:0 77:0 92:0 96:0 97:0 107:0 113:0 124:0 125:0 138:0 140:0 144:0 153:0 156:0 162:0 164:0 170:0 173:0 253:0 262:0 270:0 274:0 276:0 287:0 291:0 292:0 293:0 297:0 299:1 312:0 317:0 318:0 323:0 328:0 338:0 358:0 362:0 379:0 381:0 382:0 405:0 406:0 413:0 455:0 459:0 475:0 476:0 481:0 491:0 500:0 503:0 508:0 522:0 526:0 528:0 534:0 538:0 539:0 540:0 541:0 551:0 552:0 576:0 578:0 586:0 590:0 593:0 600:0 608:0 613:0 621:0 678:0 694:0 696:0 707:0 715:1 717:0 720:0 723:0 726:0 732:0 737:0 740:0 743:0 744:0 747:0 758:0 762:0 764:0 769:0 806:0 810:0 827:0 834:0 854:0 860:0 884:0 887:0 900:0 901:0 916:0 923:0 930:0 933:0 946:0 965:0 971:0 973:0 977:0 981:1 997:0 1000:0 1004:0 1016:0 1031:0 1034:0 1035:0 1041:0 1048:0 1056:0 1064:0 1106:0 1114:0 1148:0 1149:0 1151:0 1156:0 1157:0 1161:0 1163:0 1170:0 1181:0 1184:0 1189:0 1230:0 1248:0 1251:0 1254:0 1257:0 1274:0 1277:0 1278:0 1288:0 1295:0 1297:1 1299:0 1300:0 1324:0 1326:0 1331:0 1350:0 1352:0 1353:0 1366:0 1370:0 1373:0 1379:0 1385:0 1387:0 1409:0 1419:0 1429:0 1431:0 1433:0 1458:0 1464:0 1475:0 1483:0 1487:0 1488:0 1502:0 1511:0 1514:0 1520:0 1526:0 1549:0 1551:0 1552:0 1559:0 1569:0 1570:0 1584:0 1589:0 1598:0 1602:0 1604:0 1614:0 1616:1 1626:0 1627:0 1639:0 1658:0 1679:0 1683:0 1685:0 1686:0 1706:0 1723:0 1724:0 1730:0 1736:1 1773:0 1777:0 1778:0 1779:0 1787:0 1801:0 1811:0 1820:0 1822:0 1845:0 1850:0 1861:0 1863:0 1870:0 1874:0 1877:0 1895:0 1908:0 1912:0 1914:0 1916:0 1925:0 1933:0 1944:0 1946:1 1975:0 2014:0 2035:0 2042:0 2043:0 2063:0 2105:0 2127:0 2129:0 2133:0 2140:0 2150:0 2157:0 2172:0 2180:0 2181:0 2182:0 
0.9036901884395556 15:0 20:0 32:0 34:0 41:0 50:0 54:0 73:0 77:0 92:0 96:0 97:0 107:0 113:0 124:0 125:0 138:0 140:1 144:0 153:0 156:0 162:0 164:0 170:0 173:0 253:0 262:0 270:0 274:0 276:0 287:0 291:0 292:0 293:0 297:0 299:0 312:0 317:0 318:0 323:0 328:0 338:0 358:0 362:0 379:0 381:0 382:0 405:0 406:0 413:0 455:0 459:0 475:0 476:0 481:0 491:0 500:0 503:0 508:0 522:0 526:0 528:0 534:0 538:0 539:0 540:0 541:0 551:0 552:0 576:0 578:0 586:0 590:0 593:0 600:0 608:0 613:0 621:0 678:0 694:0 696:0 707:0 715:0 717:0 720:0 723:0 726:0 732:0 737:0 740:0 743:0 744:0 747:0 758:0 762:0 764:0 769:0 806:0 810:0 827:0 834:0 854:0 860:0 884:0 887:0 900:0 901:0 916:0 923:0 930:0 933:0 946:0 965:0 971:0 973:0 977:0 981:0 997:0 1000:0 1004:0 1016:0 1031:0 1034:1 1035:0 1041:0 1048:0 1056:0 1064:0 1106:0 1114:0 1148:0 1149:0 1151:0 1156:0 1157:1 1161:0 1163:0 1170:0 1181:0 1184:0 1189:0 1230:0 1248:0 1251:0 1254:0 1257:0 1274:0 1277:0 1278:0 1288:0 1295:0 1297:0 1299:0 1300:0 1324:0 1326:0 1331:0 1350:0 1352:0 1353:0 1366:0 1370:0 1373:0 1379:0 1385:0 1387:0 1409:0 1419:0 1429:0 1431:0 1433:0 1458:0 1464:0 1475:0 1483:0 1487:1 1488:0 1502:0 1511:0 1514:0 1520:0 1526:0 1549:0 1551:0 1552:0 1559:0 1569:0 1570:0 1584:0 1589:0 1598:0 1602:0 1604:0 1614:0 1616:0 1626:0 1627:0 1639:0 1658:0 1679:0 1683:0 1685:0 1686:0 1706:0 1723:0 1724:0 1730:0 1736:0 1773:0 1777:0 1778:0 1779:0 1787:0 1801:0 1811:0 1820:0 1822:0 1845:0 1850:0 1861:0 1863:0 1870:0 1874:0 1877:0 1895:0 1908:0 1912:0 1914:0 1916:0 1925:1 1933:0 1944:0 1946:0 1975:0 2014:0 2035:0 2042:0 2043:0 2063:0 2105:0 2127:0 2129:0 2133:0 2140:0 2150:0 2157:0 2172:0 2180:0 2181:0 2182:0 
2.39646957711451 15:0 20:0 32:0 34:1 41:0 50:0 54:0 73:0 77:0 92:0 96:0 97:0 107:0 113:0 124:0 125:0 138:0 140:1 144:0 153:0 156:0 162:0 164:0 170:0 173:0 253:0 262:0 270:0 274:1 276:0 287:0 291:0 292:0 293:0 297:0 299:0 312:0 317:0 318:0 323:0 328:0 338:0 358:0 362:0 379:0 381:0 382:0 405:0 406:0 413:0 455:0 459:0 475:0 476:0 481:0 491:0 500:0 503:0 508:0 522:0 526:0 528:0 534:0 538:0 539:0 540:0 541:0 551:0 552:0 576:0 578:0 586:0 590:0 593:0 600:0 608:0 613:0 621:0 678:0 694:0 696:0 707:0 715:0 717:0 720:0 723:0 726:0 732:0 737:0 740:0 743:0 744:0 747:0 758:0 762:0 764:0 769:0 806:0 810:0 827:0 834:0 854:0 860:0 884:0 887:0 900:0 901:0 916:0 923:0 930:0 933:0 946:0 965:0 971:0 973:0 977:0 981:0 997:0 1000:0 1004:0 1016:0 1031:0 1034:0 1035:0 1041:0 1048:0 1056:0 1064:0 1106:0 1114:0 1148:0 1149:0 1151:0 1156:0 1157:0 1161:0 1163:0 1170:0 1181:0 1184:0 1189:0 1230:0 1248:0 1251:0 1254:0 1257:0 1274:0 1277:1 1278:0 1288:0 1295:0 1297:0 1299:0 1300:0 1324:0 1326:0 1331:0 1350:0 1352:0 1353:0 1366:0 1370:0 1373:0 1379:0 1385:0 1387:0 1409:0 1419:0 1429:0 1431:0 1433:0 1458:0 1464:0 1475:0 1483:0 1487:0 1488:0 1502:0 1511:0 1514:0 1520:0 1526:0 1549:0 1551:0 1552:0 1559:0 1569:0 1570:0 1584:0 1589:0 1598:0 1602:0 1604:0 1614:0 1616:0 1626:0 1627:0 1639:0 1658:0 1679:0 1683:0 1685:0 1686:0 1706:0 1723:0 1724:0 1730:0 1736:0 1773:0 1777:0 1778:0 1779:0 1787:0 1801:0 1811:0 1820:0 1822:0 1845:0 1850:0 1861:0 1863:1 1870:0 1874:0 1877:0 1895:0 1908:0 1912:0 1914:0 1916:0 1925:0 1933:0 1944:0 1946:0 1975:0 2014:0 2035:0 2042:0 2043:0 2063:0 2105:0 2127:0 2129:0 2133:0 2140:0 2150:0 2157:0 2172:0 2180:0 2181:0 2182:0 
2.214177279899308 15:0 20:0 32:0 34:0 41:0 50:0 54:0 73:0 77:0 92:0 96:0 97:0 107:0 113:0 124:0 125:0 138:0 140:0 144:0 153:0 156:0 162:0 164:0 170:0 173:1 253:0 262:0 270:0 274:0 276:0 287:0 291:0 292:0 293:0 297:0 299:0 312:0 317:0 318:0 323:0 328:0 338:0 358:0 362:0 379:0 381:0 382:0 405:1 406:0 413:0 455:0 459:0 475:0 476:0 481:0 491:0 500:0 503:0 508:0 522:0 526:0 528:0 534:0 538:0 539:0 540:0 541:0 551:0 552:0 576:0 578:0 586:0 590:0 593:0 600:0 608:0 613:0 621:0 678:0 694:0 696:0 707:0 715:0 717:0 720:0 723:0 726:1 732:0 737:0 740:0 743:0 744:0 747:0 758:0 762:0 764:0 769:0 806:0 810:0 827:0 834:0 854:0 860:0 884:0 887:0 900:0 901:0 916:0 923:0 930:0 933:0 946:0 965:0 971:1 973:0 977:0 981:0 997:0 1000:0 1004:0 1016:0 1031:0 1034:0 1035:0 1041:0 1048:1 1056:0 1064:0 1106:1 1114:0 1148:0 1149:0 1151:0 1156:0 1157:0 1161:0 1163:0 1170:0 1181:0 1184:0 1189:0 1230:0 1248:0 1251:0 1254:0 1257:0 1274:0 1277:0 1278:0 1288:0 1295:0 1297:0 1299:0 1300:0 1324:0 1326:0 1331:0 1350:0 1352:0 1353:0 1366:0 1370:0 1373:0 1379:0 1385:0 1387:1 1409:0 1419:0 1429:0 1431:0 1433:0 1458:0 1464:0 1475:0 1483:0 1487:0 1488:0 1502:1 1511:0 1514:0 1520:0 1526:0 1549:0 1551:0 1552:0 1559:0 1569:0 1570:0 1584:0 1589:0 1598:0 1602:0 1604:0 1614:0 1616:0 1626:0 1627:0 1639:0 1658:0 1679:0 1683:0 1685:0 1686:0 1706:0 1723:0 1724:0 1730:0 1736:0 1773:0 1777:0 1778:0 1779:0 1787:0 1801:0 1811:0 1820:0 1822:0 1845:0 1850:0 1861:0 1863:0 1870:0 1874:0 1877:0 1895:0 1908:0 1912:0 1914:0 1916:0 1925:0 1933:0 1944:1 1946:0 1975:0 2014:0 2035:0 2042:0 2043:0 2063:0 2105:0 2127:0 2129:0 2133:0 2140:0 2150:0 2157:0 2172:0 2180:0 2181:0 2182:0 
